<?xml version="1.0"?>
<opencv_storage>
<cascade>
  <stageType>BOOST</stageType>
  <featureType>HAAR</featureType>
  <height>24</height>
  <width>24</width>
  <stageParams>
    <boostType>GAB</boostType>
    <minHitRate>9.9500000476837158e-01</minHitRate>
    <maxFalseAlarm>5.0000000000000000e-01</maxFalseAlarm>
    <weightTrimRate>9.4999999999999996e-01</weightTrimRate>
    <maxDepth>1</maxDepth>
    <maxWeakCount>100</maxWeakCount></stageParams>
  <featureParams>
    <maxCatCount>0</maxCatCount>
    <featSize>1</featSize>
    <mode>BASIC</mode></featureParams>
  <stageNum>20</stageNum>
  <stages>
    <!-- stage 0 -->
    <_>
      <maxWeakCount>13</maxWeakCount>
      <stageThreshold>-1.7179434299468994e+00</stageThreshold>
      <weakClassifiers>
        <_>
          <internalNodes>
            0 -1 332 -1.2894874811172485e-01</internalNodes>
          <leafValues>
            5.0519031286239624e-01 -5.3344345092773438e-01</leafValues></_>
        <_>
          <internalNodes>
            0 -1 1134 3.2121904660016298e-03</internalNodes>
          <leafValues>
            -4.3063238263130188e-01 3.6072775721549988e-01</leafValues></_>
        <_>
          <internalNodes>
            0 -1 731 5.8734449557960033e-03</internalNodes>
          <leafValues>
            1.8252913653850555e-01 -6.9197332859039307e-01</leafValues></_>
        <_>
          <internalNodes>
            0 -1 595 1.9825890194624662e-03</internalNodes>
          <leafValues>
            2.1847666800022125e-01 -6.7242032289505005e-01</leafValues></_>
        <_>
          <internalNodes>
            0 -1 556 -2.0470154285430908e-01</internalNodes>
          <leafValues>
            7.0385009050369263e-01 -2.0230856537818909e-01</leafValues></_>
        <_>
          <internalNodes>
            0 -1 168 6.9260114105418324e-04</internalNodes>
          <leafValues>
            2.2254671156406403e-01 -5.8148670196533203e-01</leafValues></_>
        <_>
          <internalNodes>
            0 -1 566 -1.4171229302883148e-01</internalNodes>
          <leafValues>
            5.0790923833847046e-01 -2.3613880574703217e-01</leafValues></_>
        <_>
          <internalNodes>
            0 -1 236 4.2283210903406143e-02</internalNodes>
          <leafValues>
            -2.4931643903255463e-01 3.9730775356292725e-01</leafValues></_>
        <_>
          <internalNodes>
            0 -1 266 1.6413085162639618e-02</internalNodes>
          <leafValues>
            -2.5732582807540894e-01 3.6469256877899170e-01</leafValues></_>
        <_>
          <internalNodes>
            0 -1 530 1.7990451306104660e-03</internalNodes>
          <leafValues>
            1.5664429962635040e-01 -5.9398794174194336e-01</leafValues></_>
        <_>
          <internalNodes>
            0 -1 102 -8.0703711137175560e-04</internalNodes>
          <leafValues>
            2.5311073660850525e-01 -3.2069775462150574e-01</leafValues></_>
        <_>
          <internalNodes>
            0 -1 736 3.0950349173508584e-04</internalNodes>
          <leafValues>
            1.2462204694747925e-01 -5.7146978378295898e-01</leafValues></_>
        <_>
          <internalNodes>
            0 -1 522 -2.8669867664575577e-02</internalNodes>
          <leafValues>
            4.6182477474212646e-01 -1.6660767793655396e-01</leafValues></_></weakClassifiers></_>
    <!-- stage 1 -->
    <_>
      <maxWeakCount>19</maxWeakCount>
      <stageThreshold>-1.6779960393905640e+00</stageThreshold>
      <weakClassifiers>
        <_>
          <internalNodes>
            0 -1 254 4.8101052641868591e-02</internalNodes>
          <leafValues>
            -5.2906239032745361e-01 3.8413685560226440e-01</leafValues></_>
        <_>
          <internalNodes>
            0 -1 815 4.1905045509338379e-04</internalNodes>
          <leafValues>
            1.2072186172008514e-01 -7.1727031469345093e-01</leafValues></_>
        <_>
          <internalNodes>
            0 -1 817 -3.5749736707657576e-04</internalNodes>
          <leafValues>
            -6.6510087251663208e-01 1.3268572092056274e-01</leafValues></_>
        <_>
          <internalNodes>
            0 -1 1038 1.4664165675640106e-02</internalNodes>
          <leafValues>
            -2.9847812652587891e-01 3.4905549883842468e-01</leafValues></_>
        <_>
          <internalNodes>
            0 -1 107 -4.2172260582447052e-03</internalNodes>
          <leafValues>
            3.5927861928939819e-01 -2.4972204864025116e-01</leafValues></_>
        <_>
          <internalNodes>
            0 -1 467 4.0521481423638761e-04</internalNodes>
          <leafValues>
            1.3648186624050140e-01 -5.8108252286911011e-01</leafValues></_>
        <_>
          <internalNodes>
            0 -1 30 2.1228000521659851e-02</internalNodes>
          <leafValues>
            -2.5057896971702576e-01 3.3250945806503296e-01</leafValues></_>
        <_>
          <internalNodes>
            0 -1 390 1.7402236163616180e-01</internalNodes>
          <leafValues>
            -1.5632539987564087e-01 5.7026916742324829e-01</leafValues></_>
        <_>
          <internalNodes>
            0 -1 320 -1.3054817914962769e-01</internalNodes>
          <leafValues>
            5.4596447944641113e-01 -1.6252407431602478e-01</leafValues></_>
        <_>
          <internalNodes>
            0 -1 1129 3.2541309483349323e-03</internalNodes>
          <leafValues>
            -1.8873450160026550e-01 3.8910877704620361e-01</leafValues></_>
        <_>
          <internalNodes>
            0 -1 73 3.6866576410830021e-03</internalNodes>
          <leafValues>
            -1.4318437874317169e-01 4.2678761482238770e-01</leafValues></_>
        <_>
          <internalNodes>
            0 -1 742 -7.9898996045812964e-04</internalNodes>
          <leafValues>
            -7.6045560836791992e-01 8.8039495050907135e-02</leafValues></_>
        <_>
          <internalNodes>
            0 -1 58 -1.7354893498122692e-03</internalNodes>
          <leafValues>
            3.4411627054214478e-01 -1.9283245503902435e-01</leafValues></_>
        <_>
          <internalNodes>
            0 -1 738 4.7768253716640174e-04</internalNodes>
          <leafValues>
            1.3358691334724426e-01 -5.2887547016143799e-01</leafValues></_>
        <_>
          <internalNodes>
            0 -1 1089 -1.6896957531571388e-03</internalNodes>
          <leafValues>
            3.4557902812957764e-01 -1.7900833487510681e-01</leafValues></_>
        <_>
          <internalNodes>
            0 -1 219 -5.9424452483654022e-03</internalNodes>
          <leafValues>
            3.9767250418663025e-01 -1.5288984775543213e-01</leafValues></_>
        <_>
          <internalNodes>
            0 -1 389 -1.9034072756767273e-01</internalNodes>
          <leafValues>
            5.1739549636840820e-01 -1.0294099152088165e-01</leafValues></_>
        <_>
          <internalNodes>
            0 -1 1206 -5.5964372586458921e-04</internalNodes>
          <leafValues>
            -5.1384854316711426e-01 1.1577939987182617e-01</leafValues></_>
        <_>
          <internalNodes>
            0 -1 1156 -3.0200355686247349e-03</internalNodes>
          <leafValues>
            3.5846689343452454e-01 -1.6909214854240417e-01</leafValues></_></weakClassifiers></_>
    <!-- stage 2 -->
    <_>
      <maxWeakCount>26</maxWeakCount>
      <stageThreshold>-1.6284358501434326e+00</stageThreshold>
      <weakClassifiers>
        <_>
          <internalNodes>
            0 -1 576 -9.5284432172775269e-02</internalNodes>
          <leafValues>
            2.0184089243412018e-01 -5.1507031917572021e-01</leafValues></_>
        <_>
          <internalNodes>
            0 -1 874 4.2585143819451332e-04</internalNodes>
          <leafValues>
            9.2126920819282532e-02 -7.5651317834854126e-01</leafValues></_>
        <_>
          <internalNodes>
            0 -1 874 -4.0491617983207107e-04</internalNodes>
          <leafValues>
            -6.7903590202331543e-01 1.8440452218055725e-01</leafValues></_>
        <_>
          <internalNodes>
            0 -1 827 4.8028536140918732e-02</internalNodes>
          <leafValues>
            -3.2740399241447449e-01 3.0025339126586914e-01</leafValues></_>
        <_>
          <internalNodes>
            0 -1 105 -8.6778234690427780e-03</internalNodes>
          <leafValues>
            4.0171521902084351e-01 -1.8702647089958191e-01</leafValues></_>
        <_>
          <internalNodes>
            0 -1 110 2.1196031570434570e-01</internalNodes>
          <leafValues>
            -1.3212826848030090e-01 5.9306484460830688e-01</leafValues></_>
        <_>
          <internalNodes>
            0 -1 340 2.7086411137133837e-04</internalNodes>
          <leafValues>
            1.6458986699581146e-01 -5.3471207618713379e-01</leafValues></_>
        <_>
          <internalNodes>
            0 -1 1142 8.1297000870108604e-03</internalNodes>
          <leafValues>
            -2.1034029126167297e-01 3.5346043109893799e-01</leafValues></_>
        <_>
          <internalNodes>
            0 -1 529 2.8697476955130696e-04</internalNodes>
          <leafValues>
            1.1789358407258987e-01 -4.9611070752143860e-01</leafValues></_>
        <_>
          <internalNodes>
            0 -1 499 9.9679566919803619e-03</internalNodes>
          <leafValues>
            -1.4713546633720398e-01 4.3798211216926575e-01</leafValues></_>
        <_>
          <internalNodes>
            0 -1 613 -3.9168382063508034e-03</internalNodes>
          <leafValues>
            4.0268242359161377e-01 -1.5996262431144714e-01</leafValues></_>
        <_>
          <internalNodes>
            0 -1 1110 -3.8960308302193880e-04</internalNodes>
          <leafValues>
            -5.4486918449401855e-01 1.0227880626916885e-01</leafValues></_>
        <_>
          <internalNodes>
            0 -1 1005 -1.2233462184667587e-03</internalNodes>
          <leafValues>
            -5.3408688306808472e-01 1.0336419939994812e-01</leafValues></_>
        <_>
          <internalNodes>
            0 -1 232 4.5630929525941610e-04</internalNodes>
          <leafValues>
            -1.3834197819232941e-01 4.5752781629562378e-01</leafValues></_>
        <_>
          <internalNodes>
            0 -1 524 -3.5243935883045197e-02</internalNodes>
          <leafValues>
            3.9998909831047058e-01 -1.3675940036773682e-01</leafValues></_>
        <_>
          <internalNodes>
            0 -1 497 -1.7157983779907227e-01</internalNodes>
          <leafValues>
            4.5099875330924988e-01 -1.6484245657920837e-01</leafValues></_>
        <_>
          <internalNodes>
            0 -1 196 9.8498091101646423e-03</internalNodes>
          <leafValues>
            -1.8211346864700317e-01 2.8012847900390625e-01</leafValues></_>
        <_>
          <internalNodes>
            0 -1 177 1.6540134674869478e-04</internalNodes>
          <leafValues>
            9.2339880764484406e-02 -5.0969284772872925e-01</leafValues></_>
        <_>
          <internalNodes>
            0 -1 305 1.7144959419965744e-03</internalNodes>
          <leafValues>
            -1.6535349190235138e-01 3.4458714723587036e-01</leafValues></_>
        <_>
          <internalNodes>
            0 -1 1116 4.1360845789313316e-03</internalNodes>
          <leafValues>
            -1.1616992205381393e-01 4.0402552485466003e-01</leafValues></_>
        <_>
          <internalNodes>
            0 -1 1051 -5.2151852287352085e-03</internalNodes>
          <leafValues>
            2.9883244633674622e-01 -1.8082214891910553e-01</leafValues></_>
        <_>
          <internalNodes>
            0 -1 615 -2.1631905436515808e-01</internalNodes>
          <leafValues>
            5.0877916812896729e-01 -1.1413733661174774e-01</leafValues></_>
        <_>
          <internalNodes>
            0 -1 352 -2.6336240768432617e-01</internalNodes>
          <leafValues>
            5.2582973241806030e-01 -1.1182593554258347e-01</leafValues></_>
        <_>
          <internalNodes>
            0 -1 1087 2.2520138882100582e-03</internalNodes>
          <leafValues>
            -1.3178591430187225e-01 3.3995372056961060e-01</leafValues></_>
        <_>
          <internalNodes>
            0 -1 534 -3.8906815461814404e-04</internalNodes>
          <leafValues>
            -5.4149234294891357e-01 8.0080702900886536e-02</leafValues></_>
        <_>
          <internalNodes>
            0 -1 115 -5.0759892910718918e-03</internalNodes>
          <leafValues>
            2.2148214280605316e-01 -2.0813615620136261e-01</leafValues></_></weakClassifiers></_>
    <!-- stage 3 -->
    <_>
      <maxWeakCount>28</maxWeakCount>
      <stageThreshold>-1.5664280652999878e+00</stageThreshold>
      <weakClassifiers>
        <_>
          <internalNodes>
            0 -1 639 3.2239656895399094e-02</internalNodes>
          <leafValues>
            -5.1648861169815063e-01 1.3223139941692352e-01</leafValues></_>
        <_>
          <internalNodes>
            0 -1 691 2.7958344435319304e-04</internalNodes>
          <leafValues>
            8.4716871380805969e-02 -6.3100558519363403e-01</leafValues></_>
        <_>
          <internalNodes>
            0 -1 691 -4.5205454807728529e-04</internalNodes>
          <leafValues>
            -6.3041138648986816e-01 1.4597074687480927e-01</leafValues></_>
        <_>
          <internalNodes>
            0 -1 1068 6.1790454201400280e-03</internalNodes>
          <leafValues>
            -3.3915567398071289e-01 2.5323113799095154e-01</leafValues></_>
        <_>
          <internalNodes>
            0 -1 103 -8.1301946192979813e-04</internalNodes>
          <leafValues>
            2.1978217363357544e-01 -3.1127691268920898e-01</leafValues></_>
        <_>
          <internalNodes>
            0 -1 645 9.2773335054516792e-03</internalNodes>
          <leafValues>
            -2.0093987882137299e-01 3.0705738067626953e-01</leafValues></_>
        <_>
          <internalNodes>
            0 -1 477 -3.8405280560255051e-02</internalNodes>
          <leafValues>
            4.3288737535476685e-01 -1.5442685782909393e-01</leafValues></_>
        <_>
          <internalNodes>
            0 -1 898 2.2949068807065487e-04</internalNodes>
          <leafValues>
            1.1258048564195633e-01 -5.3147238492965698e-01</leafValues></_>
        <_>
          <internalNodes>
            0 -1 901 -3.7805718602612615e-04</internalNodes>
          <leafValues>
            -5.4391163587570190e-01 1.1521627008914948e-01</leafValues></_>
        <_>
          <internalNodes>
            0 -1 303 3.4579209750518203e-04</internalNodes>
          <leafValues>
            -1.5944020450115204e-01 3.8250774145126343e-01</leafValues></_>
        <_>
          <internalNodes>
            0 -1 63 -1.4043873175978661e-02</internalNodes>
          <leafValues>
            3.0254739522933960e-01 -1.8056689202785492e-01</leafValues></_>
        <_>
          <internalNodes>
            0 -1 960 -8.4351433906704187e-04</internalNodes>
          <leafValues>
            -6.5538734197616577e-01 8.0423220992088318e-02</leafValues></_>
        <_>
          <internalNodes>
            0 -1 825 -1.0178036987781525e-02</internalNodes>
          <leafValues>
            2.3026327788829803e-01 -2.2712467610836029e-01</leafValues></_>
        <_>
          <internalNodes>
            0 -1 304 -3.2843304798007011e-03</internalNodes>
          <leafValues>
            3.7949913740158081e-01 -1.4260002970695496e-01</leafValues></_>
        <_>
          <internalNodes>
            0 -1 308 2.7089026570320129e-01</internalNodes>
          <leafValues>
            -6.5745532512664795e-02 6.1457604169845581e-01</leafValues></_>
        <_>
          <internalNodes>
            0 -1 1064 1.3131335377693176e-02</internalNodes>
          <leafValues>
            -1.2667234241962433e-01 4.2443323135375977e-01</leafValues></_>
        <_>
          <internalNodes>
            0 -1 434 -3.4334507584571838e-01</internalNodes>
          <leafValues>
            5.0967437028884888e-01 -1.1109907925128937e-01</leafValues></_>
        <_>
          <internalNodes>
            0 -1 623 -7.2314843535423279e-02</internalNodes>
          <leafValues>
            4.4986134767532349e-01 -1.3044029474258423e-01</leafValues></_>
        <_>
          <internalNodes>
            0 -1 212 -4.8203673213720322e-03</internalNodes>
          <leafValues>
            3.5125288367271423e-01 -1.3350340723991394e-01</leafValues></_>
        <_>
          <internalNodes>
            0 -1 74 7.7600777149200439e-03</internalNodes>
          <leafValues>
            -1.1935622245073318e-01 3.7875056266784668e-01</leafValues></_>
        <_>
          <internalNodes>
            0 -1 96 9.6914754249155521e-04</internalNodes>
          <leafValues>
            -1.2375950068235397e-01 3.4745532274246216e-01</leafValues></_>
        <_>
          <internalNodes>
            0 -1 533 3.0359841184690595e-04</internalNodes>
          <leafValues>
            8.4000468254089355e-02 -6.6512066125869751e-01</leafValues></_>
        <_>
          <internalNodes>
            0 -1 981 -8.1229431089013815e-04</internalNodes>
          <leafValues>
            2.9455101490020752e-01 -1.4685818552970886e-01</leafValues></_>
        <_>
          <internalNodes>
            0 -1 809 1.3159336522221565e-03</internalNodes>
          <leafValues>
            6.7206151783466339e-02 -7.1991878747940063e-01</leafValues></_>
        <_>
          <internalNodes>
            0 -1 982 6.0013058828189969e-04</internalNodes>
          <leafValues>
            -1.5443496406078339e-01 3.0884680151939392e-01</leafValues></_>
        <_>
          <internalNodes>
            0 -1 1081 -1.3945047976449132e-04</internalNodes>
          <leafValues>
            -4.3740239739418030e-01 8.7085932493209839e-02</leafValues></_>
        <_>
          <internalNodes>
            0 -1 222 4.4134864583611488e-04</internalNodes>
          <leafValues>
            -1.2291046231985092e-01 3.3576586842536926e-01</leafValues></_>
        <_>
          <internalNodes>
            0 -1 804 -4.6159652993083000e-04</internalNodes>
          <leafValues>
            2.2810894250869751e-01 -1.6779769957065582e-01</leafValues></_></weakClassifiers></_>
    <!-- stage 4 -->
    <_>
      <maxWeakCount>43</maxWeakCount>
      <stageThreshold>-1.7062140703201294e+00</stageThreshold>
      <weakClassifiers>
        <_>
          <internalNodes>
            0 -1 331 -1.4247268438339233e-01</internalNodes>
          <leafValues>
            9.9573254585266113e-02 -4.6582499146461487e-01</leafValues></_>
        <_>
          <internalNodes>
            0 -1 637 1.5632449649274349e-03</internalNodes>
          <leafValues>
            8.8998556137084961e-02 -6.0047471523284912e-01</leafValues></_>
        <_>
          <internalNodes>
            0 -1 1135 1.8395315855741501e-03</internalNodes>
          <leafValues>
            -3.2199174165725708e-01 1.7114843428134918e-01</leafValues></_>
        <_>
          <internalNodes>
            0 -1 729 -5.1258690655231476e-04</internalNodes>
          <leafValues>
            -5.0367927551269531e-01 1.1277460306882858e-01</leafValues></_>
        <_>
          <internalNodes>
            0 -1 348 5.5302157998085022e-03</internalNodes>
          <leafValues>
            -1.9702881574630737e-01 2.6899239420890808e-01</leafValues></_>
        <_>
          <internalNodes>
            0 -1 1218 -1.0350003838539124e-02</internalNodes>
          <leafValues>
            -5.6082791090011597e-01 9.3970812857151031e-02</leafValues></_>
        <_>
          <internalNodes>
            0 -1 441 -3.0317431688308716e-01</internalNodes>
          <leafValues>
            4.4968903064727783e-01 -1.0351657867431641e-01</leafValues></_>
        <_>
          <internalNodes>
            0 -1 101 -1.2663260567933321e-03</internalNodes>
          <leafValues>
            2.6183158159255981e-01 -2.2034700214862823e-01</leafValues></_>
        <_>
          <internalNodes>
            0 -1 1179 -2.8112169820815325e-04</internalNodes>
          <leafValues>
            -4.4843128323554993e-01 1.0897090286016464e-01</leafValues></_>
        <_>
          <internalNodes>
            0 -1 1179 1.7247680807486176e-04</internalNodes>
          <leafValues>
            9.5516294240951538e-02 -3.9233398437500000e-01</leafValues></_>
        <_>
          <internalNodes>
            0 -1 1090 -4.7293413081206381e-04</internalNodes>
          <leafValues>
            3.9156025648117065e-01 -1.1627972871065140e-01</leafValues></_>
        <_>
          <internalNodes>
            0 -1 1090 3.1236623181030154e-04</internalNodes>
          <leafValues>
            -1.4354361593723297e-01 4.3337279558181763e-01</leafValues></_>
        <_>
          <internalNodes>
            0 -1 253 -4.3155893217772245e-04</internalNodes>
          <leafValues>
            1.6099804639816284e-01 -2.6022103428840637e-01</leafValues></_>
        <_>
          <internalNodes>
            0 -1 513 3.8586862385272980e-02</internalNodes>
          <leafValues>
            -1.2533217668533325e-01 3.8630184531211853e-01</leafValues></_>
        <_>
          <internalNodes>
            0 -1 402 -3.9381660521030426e-02</internalNodes>
          <leafValues>
            2.9955336451530457e-01 -1.5469790995121002e-01</leafValues></_>
        <_>
          <internalNodes>
            0 -1 469 4.5982177834957838e-04</internalNodes>
          <leafValues>
            9.0384431183338165e-02 -4.8134410381317139e-01</leafValues></_>
        <_>
          <internalNodes>
            0 -1 370 5.9786881320178509e-04</internalNodes>
          <leafValues>
            -1.0680314153432846e-01 3.8930645585060120e-01</leafValues></_>
        <_>
          <internalNodes>
            0 -1 716 -1.1528086848556995e-02</internalNodes>
          <leafValues>
            2.0987822115421295e-01 -1.7125146090984344e-01</leafValues></_>
        <_>
          <internalNodes>
            0 -1 1003 -1.2416930985637009e-04</internalNodes>
          <leafValues>
            -4.1278007626533508e-01 8.2104608416557312e-02</leafValues></_>
        <_>
          <internalNodes>
            0 -1 1125 -3.6659193574450910e-04</internalNodes>
          <leafValues>
            3.2077366113662720e-01 -1.1971683800220490e-01</leafValues></_>
        <_>
          <internalNodes>
            0 -1 1125 1.8703899695537984e-04</internalNodes>
          <leafValues>
            -1.3587598502635956e-01 2.7984371781349182e-01</leafValues></_>
        <_>
          <internalNodes>
            0 -1 1004 2.0910755847580731e-04</internalNodes>
          <leafValues>
            8.2305282354354858e-02 -4.1520178318023682e-01</leafValues></_>
        <_>
          <internalNodes>
            0 -1 416 1.5879187732934952e-02</internalNodes>
          <leafValues>
            -8.0833040177822113e-02 4.4726774096488953e-01</leafValues></_>
        <_>
          <internalNodes>
            0 -1 702 -4.0343832224607468e-03</internalNodes>
          <leafValues>
            3.3394283056259155e-01 -1.2534220516681671e-01</leafValues></_>
        <_>
          <internalNodes>
            0 -1 1061 -2.9052251484245062e-03</internalNodes>
          <leafValues>
            3.1691068410873413e-01 -1.0354226827621460e-01</leafValues></_>
        <_>
          <internalNodes>
            0 -1 360 2.3379573225975037e-01</internalNodes>
          <leafValues>
            -7.1273878216743469e-02 4.2112657427787781e-01</leafValues></_>
        <_>
          <internalNodes>
            0 -1 561 -1.7111089080572128e-02</internalNodes>
          <leafValues>
            2.3072984814643860e-01 -2.0681218802928925e-01</leafValues></_>
        <_>
          <internalNodes>
            0 -1 368 3.0673757195472717e-01</internalNodes>
          <leafValues>
            -5.1443099975585938e-02 6.3643556833267212e-01</leafValues></_>
        <_>
          <internalNodes>
            0 -1 72 -7.2769299149513245e-03</internalNodes>
          <leafValues>
            2.4820661544799805e-01 -1.3955177366733551e-01</leafValues></_>
        <_>
          <internalNodes>
            0 -1 469 -4.3046011705882847e-04</internalNodes>
          <leafValues>
            -4.1728585958480835e-01 7.6480366289615631e-02</leafValues></_>
        <_>
          <internalNodes>
            0 -1 408 1.5407753380713984e-05</internalNodes>
          <leafValues>
            -2.1565854549407959e-01 1.4607459306716919e-01</leafValues></_>
        <_>
          <internalNodes>
            0 -1 61 2.0427345298230648e-03</internalNodes>
          <leafValues>
            -1.2404750287532806e-01 2.5603148341178894e-01</leafValues></_>
        <_>
          <internalNodes>
            0 -1 95 -6.2440370675176382e-04</internalNodes>
          <leafValues>
            3.1721460819244385e-01 -1.1060456931591034e-01</leafValues></_>
        <_>
          <internalNodes>
            0 -1 1204 -2.1407984604593366e-04</internalNodes>
          <leafValues>
            -4.0319699048995972e-01 8.7119966745376587e-02</leafValues></_>
        <_>
          <internalNodes>
            0 -1 517 1.1174771189689636e-01</internalNodes>
          <leafValues>
            -6.7151583731174469e-02 4.8935627937316895e-01</leafValues></_>
        <_>
          <internalNodes>
            0 -1 833 -2.4340473115444183e-02</internalNodes>
          <leafValues>
            2.5937762856483459e-01 -1.2621039152145386e-01</leafValues></_>
        <_>
          <internalNodes>
            0 -1 1042 -2.2013522684574127e-03</internalNodes>
          <leafValues>
            2.6613080501556396e-01 -1.3449703156948090e-01</leafValues></_>
        <_>
          <internalNodes>
            0 -1 559 5.0493516027927399e-02</internalNodes>
          <leafValues>
            5.4953131824731827e-02 -6.0403627157211304e-01</leafValues></_>
        <_>
          <internalNodes>
            0 -1 579 -3.0630318447947502e-02</internalNodes>
          <leafValues>
            2.6294162869453430e-01 -1.2648889422416687e-01</leafValues></_>
        <_>
          <internalNodes>
            0 -1 344 -3.2513117184862494e-04</internalNodes>
          <leafValues>
            -3.7876096367835999e-01 7.8510224819183350e-02</leafValues></_>
        <_>
          <internalNodes>
            0 -1 4 -1.5696536749601364e-02</internalNodes>
          <leafValues>
            2.8820052742958069e-01 -1.1356729269027710e-01</leafValues></_>
        <_>
          <internalNodes>
            0 -1 60 1.9176807254552841e-02</internalNodes>
          <leafValues>
            6.8038314580917358e-02 -4.9424093961715698e-01</leafValues></_>
        <_>
          <internalNodes>
            0 -1 788 2.2460508625954390e-04</internalNodes>
          <leafValues>
            5.9126336127519608e-02 -4.6735796332359314e-01</leafValues></_></weakClassifiers></_>
    <!-- stage 5 -->
    <_>
      <maxWeakCount>44</maxWeakCount>
      <stageThreshold>-1.5596454143524170e+00</stageThreshold>
      <weakClassifiers>
        <_>
          <internalNodes>
            0 -1 724 -8.9404918253421783e-02</internalNodes>
          <leafValues>
            7.7540107071399689e-02 -4.6980461478233337e-01</leafValues></_>
        <_>
          <internalNodes>
            0 -1 818 5.8108021039515734e-04</internalNodes>
          <leafValues>
            7.7408447861671448e-02 -4.8907327651977539e-01</leafValues></_>
        <_>
          <internalNodes>
            0 -1 114 -3.4170807339251041e-03</internalNodes>
          <leafValues>
            1.8386784195899963e-01 -2.7129527926445007e-01</leafValues></_>
        <_>
          <internalNodes>
            0 -1 689 7.8530970495194197e-04</internalNodes>
          <leafValues>
            1.2365969270467758e-01 -4.3840432167053223e-01</leafValues></_>
        <_>
          <internalNodes>
            0 -1 326 -1.0087370872497559e-02</internalNodes>
          <leafValues>
            3.6093533039093018e-01 -1.0491700470447540e-01</leafValues></_>
        <_>
          <internalNodes>
            0 -1 244 1.2052103877067566e-02</internalNodes>
          <leafValues>
            -1.2925909459590912e-01 4.0903085470199585e-01</leafValues></_>
        <_>
          <internalNodes>
            0 -1 1137 4.6383179724216461e-03</internalNodes>
          <leafValues>
            -1.8442645668983459e-01 2.7027723193168640e-01</leafValues></_>
        <_>
          <internalNodes>
            0 -1 1220 -3.7187268026173115e-03</internalNodes>
          <leafValues>
            -4.8703050613403320e-01 9.9707722663879395e-02</leafValues></_>
        <_>
          <internalNodes>
            0 -1 777 -4.5043526915833354e-04</internalNodes>
          <leafValues>
            -5.0928324460983276e-01 7.4330225586891174e-02</leafValues></_>
        <_>
          <internalNodes>
            0 -1 12 1.9951965659856796e-02</internalNodes>
          <leafValues>
            -2.1817085146903992e-01 2.0501174032688141e-01</leafValues></_>
        <_>
          <internalNodes>
            0 -1 812 -6.4093235414475203e-04</internalNodes>
          <leafValues>
            2.7213537693023682e-01 -1.7073948681354523e-01</leafValues></_>
        <_>
          <internalNodes>
            0 -1 182 -2.9576307861134410e-04</internalNodes>
          <leafValues>
            -4.7161695361137390e-01 7.5673937797546387e-02</leafValues></_>
        <_>
          <internalNodes>
            0 -1 82 -3.1686061993241310e-03</internalNodes>
          <leafValues>
            2.7309519052505493e-01 -1.3751003146171570e-01</leafValues></_>
        <_>
          <internalNodes>
            0 -1 932 4.0491460822522640e-04</internalNodes>
          <leafValues>
            1.2113560736179352e-01 -2.9365521669387817e-01</leafValues></_>
        <_>
          <internalNodes>
            0 -1 614 -1.7377504706382751e-01</internalNodes>
          <leafValues>
            4.5016604661941528e-01 -8.4347136318683624e-02</leafValues></_>
        <_>
          <internalNodes>
            0 -1 1128 5.1814003381878138e-04</internalNodes>
          <leafValues>
            -8.8858276605606079e-02 3.8089680671691895e-01</leafValues></_>
        <_>
          <internalNodes>
            0 -1 285 3.6334413290023804e-01</internalNodes>
          <leafValues>
            -8.5877828299999237e-02 4.8648527264595032e-01</leafValues></_>
        <_>
          <internalNodes>
            0 -1 569 2.7583587169647217e-01</internalNodes>
          <leafValues>
            -4.8574015498161316e-02 7.1858388185501099e-01</leafValues></_>
        <_>
          <internalNodes>
            0 -1 646 1.5150245279073715e-02</internalNodes>
          <leafValues>
            -6.3945271074771881e-02 4.9424558877944946e-01</leafValues></_>
        <_>
          <internalNodes>
            0 -1 647 -3.9879158139228821e-03</internalNodes>
          <leafValues>
            3.0068910121917725e-01 -1.3167166709899902e-01</leafValues></_>
        <_>
          <internalNodes>
            0 -1 1126 -5.3060462232679129e-04</internalNodes>
          <leafValues>
            2.7606388926506042e-01 -1.1920943856239319e-01</leafValues></_>
        <_>
          <internalNodes>
            0 -1 911 9.8211253061890602e-03</internalNodes>
          <leafValues>
            -2.1928691864013672e-01 1.5301579236984253e-01</leafValues></_>
        <_>
          <internalNodes>
            0 -1 642 1.0555471817497164e-04</internalNodes>
          <leafValues>
            9.8391875624656677e-02 -3.3849310874938965e-01</leafValues></_>
        <_>
          <internalNodes>
            0 -1 586 -4.8131227493286133e-02</internalNodes>
          <leafValues>
            3.5402181744575500e-01 -9.6544422209262848e-02</leafValues></_>
        <_>
          <internalNodes>
            0 -1 270 -2.3473871406167746e-03</internalNodes>
          <leafValues>
            2.8669664263725281e-01 -1.1762330681085587e-01</leafValues></_>
        <_>
          <internalNodes>
            0 -1 45 -4.8248665407299995e-03</internalNodes>
          <leafValues>
            2.8369766473770142e-01 -1.2687756121158600e-01</leafValues></_>
        <_>
          <internalNodes>
            0 -1 643 -5.1645154599100351e-04</internalNodes>
          <leafValues>
            -5.1403981447219849e-01 6.6143557429313660e-02</leafValues></_>
        <_>
          <internalNodes>
            0 -1 1207 -2.7710590511560440e-03</internalNodes>
          <leafValues>
            -6.8545901775360107e-01 3.8671225309371948e-02</leafValues></_>
        <_>
          <internalNodes>
            0 -1 430 2.9704396729357541e-04</internalNodes>
          <leafValues>
            -1.1718817055225372e-01 2.8015738725662231e-01</leafValues></_>
        <_>
          <internalNodes>
            0 -1 430 -3.2294163247570395e-04</internalNodes>
          <leafValues>
            3.1505784392356873e-01 -1.1060398817062378e-01</leafValues></_>
        <_>
          <internalNodes>
            0 -1 493 8.0875409767031670e-03</internalNodes>
          <leafValues>
            -9.3806333839893341e-02 3.1664022803306580e-01</leafValues></_>
        <_>
          <internalNodes>
            0 -1 300 -4.0685990825295448e-03</internalNodes>
          <leafValues>
            2.4217607080936432e-01 -1.2787985801696777e-01</leafValues></_>
        <_>
          <internalNodes>
            0 -1 181 1.1638544674497098e-04</internalNodes>
          <leafValues>
            8.9172013103961945e-02 -3.4564656019210815e-01</leafValues></_>
        <_>
          <internalNodes>
            0 -1 1159 -3.7828246131539345e-03</internalNodes>
          <leafValues>
            2.9218015074729919e-01 -1.0704072564840317e-01</leafValues></_>
        <_>
          <internalNodes>
            0 -1 1079 6.2506843823939562e-04</internalNodes>
          <leafValues>
            6.8275362253189087e-02 -4.9290046095848083e-01</leafValues></_>
        <_>
          <internalNodes>
            0 -1 159 -1.8956560641527176e-02</internalNodes>
          <leafValues>
            2.2741778194904327e-01 -1.4077365398406982e-01</leafValues></_>
        <_>
          <internalNodes>
            0 -1 919 3.1701281666755676e-02</internalNodes>
          <leafValues>
            -1.2045402079820633e-01 2.8546619415283203e-01</leafValues></_>
        <_>
          <internalNodes>
            0 -1 377 -1.5017318725585938e-01</internalNodes>
          <leafValues>
            2.9278019070625305e-01 -1.4869624376296997e-01</leafValues></_>
        <_>
          <internalNodes>
            0 -1 1157 2.8153148014098406e-04</internalNodes>
          <leafValues>
            -1.1244027316570282e-01 2.6289141178131104e-01</leafValues></_>
        <_>
          <internalNodes>
            0 -1 6 -3.2818114850670099e-03</internalNodes>
          <leafValues>
            -5.4847711324691772e-01 5.1379490643739700e-02</leafValues></_>
        <_>
          <internalNodes>
            0 -1 86 9.7899558022618294e-04</internalNodes>
          <leafValues>
            -8.4111951291561127e-02 3.6966371536254883e-01</leafValues></_>
        <_>
          <internalNodes>
            0 -1 1174 -1.2539115268737078e-03</internalNodes>
          <leafValues>
            -4.5954775810241699e-01 6.3151761889457703e-02</leafValues></_>
        <_>
          <internalNodes>
            0 -1 1011 -5.0725112669169903e-04</internalNodes>
          <leafValues>
            2.5099766254425049e-01 -1.0629202425479889e-01</leafValues></_>
        <_>
          <internalNodes>
            0 -1 181 -1.1343893129378557e-03</internalNodes>
          <leafValues>
            -6.0543972253799438e-01 4.4643916189670563e-02</leafValues></_></weakClassifiers></_>
    <!-- stage 6 -->
    <_>
      <maxWeakCount>53</maxWeakCount>
      <stageThreshold>-1.5313174724578857e+00</stageThreshold>
      <weakClassifiers>
        <_>
          <internalNodes>
            0 -1 330 -1.1231448501348495e-01</internalNodes>
          <leafValues>
            6.6666670143604279e-02 -4.8888888955116272e-01</leafValues></_>
        <_>
          <internalNodes>
            0 -1 1135 3.5248035565018654e-03</internalNodes>
          <leafValues>
            -2.8833097219467163e-01 1.4989717304706573e-01</leafValues></_>
        <_>
          <internalNodes>
            0 -1 777 3.7218802026472986e-04</internalNodes>
          <leafValues>
            8.6979791522026062e-02 -4.7759160399436951e-01</leafValues></_>
        <_>
          <internalNodes>
            0 -1 783 -3.8878322811797261e-04</internalNodes>
          <leafValues>
            -4.4922992587089539e-01 1.3771760463714600e-01</leafValues></_>
        <_>
          <internalNodes>
            0 -1 98 -5.2096955478191376e-03</internalNodes>
          <leafValues>
            1.7748838663101196e-01 -2.2597818076610565e-01</leafValues></_>
        <_>
          <internalNodes>
            0 -1 312 1.9120445940643549e-03</internalNodes>
          <leafValues>
            -1.0626176744699478e-01 3.4941619634628296e-01</leafValues></_>
        <_>
          <internalNodes>
            0 -1 113 -7.5892186723649502e-03</internalNodes>
          <leafValues>
            -4.4395333528518677e-01 7.0703811943531036e-02</leafValues></_>
        <_>
          <internalNodes>
            0 -1 583 -1.0163777042180300e-03</internalNodes>
          <leafValues>
            2.4016264081001282e-01 -1.6721545159816742e-01</leafValues></_>
        <_>
          <internalNodes>
            0 -1 234 1.5285268891602755e-03</internalNodes>
          <leafValues>
            -1.1579696089029312e-01 2.7864170074462891e-01</leafValues></_>
        <_>
          <internalNodes>
            0 -1 531 3.2088716397993267e-04</internalNodes>
          <leafValues>
            5.6696813553571701e-02 -4.4032925367355347e-01</leafValues></_>
        <_>
          <internalNodes>
            0 -1 1078 2.9901828384026885e-05</internalNodes>
          <leafValues>
            -1.9244740903377533e-01 1.6030777990818024e-01</leafValues></_>
        <_>
          <internalNodes>
            0 -1 296 -3.0994755029678345e-01</internalNodes>
          <leafValues>
            3.8131594657897949e-01 -9.2270523309707642e-02</leafValues></_>
        <_>
          <internalNodes>
            0 -1 669 1.1640350334346294e-02</internalNodes>
          <leafValues>
            -6.8594723939895630e-02 4.9516543745994568e-01</leafValues></_>
        <_>
          <internalNodes>
            0 -1 853 3.5248091444373131e-03</internalNodes>
          <leafValues>
            -1.0740413516759872e-01 3.0019515752792358e-01</leafValues></_>
        <_>
          <internalNodes>
            0 -1 124 -4.2639971070457250e-05</internalNodes>
          <leafValues>
            1.2361764162778854e-01 -2.8823670744895935e-01</leafValues></_>
        <_>
          <internalNodes>
            0 -1 791 3.9003565907478333e-03</internalNodes>
          <leafValues>
            -1.5098208189010620e-01 2.2816616296768188e-01</leafValues></_>
        <_>
          <internalNodes>
            0 -1 795 -2.9720955062657595e-03</internalNodes>
          <leafValues>
            3.6517083644866943e-01 -8.6597658693790436e-02</leafValues></_>
        <_>
          <internalNodes>
            0 -1 1054 1.4276167377829552e-02</internalNodes>
          <leafValues>
            -1.3078840076923370e-01 2.3274512588977814e-01</leafValues></_>
        <_>
          <internalNodes>
            0 -1 1033 -2.5935382582247257e-03</internalNodes>
          <leafValues>
            -4.5430406928062439e-01 7.9411938786506653e-02</leafValues></_>
        <_>
          <internalNodes>
            0 -1 1150 -9.0767032816074789e-05</internalNodes>
          <leafValues>
            -3.6722236871719360e-01 8.6944192647933960e-02</leafValues></_>
        <_>
          <internalNodes>
            0 -1 908 -6.9559674011543393e-04</internalNodes>
          <leafValues>
            2.6134863495826721e-01 -1.1792541295289993e-01</leafValues></_>
        <_>
          <internalNodes>
            0 -1 1017 4.2776725604198873e-04</internalNodes>
          <leafValues>
            -9.1104350984096527e-02 3.0730545520782471e-01</leafValues></_>
        <_>
          <internalNodes>
            0 -1 1017 -4.3037702562287450e-04</internalNodes>
          <leafValues>
            3.4378457069396973e-01 -1.1225008964538574e-01</leafValues></_>
        <_>
          <internalNodes>
            0 -1 230 3.3013212680816650e-01</internalNodes>
          <leafValues>
            -5.1601465791463852e-02 4.7225767374038696e-01</leafValues></_>
        <_>
          <internalNodes>
            0 -1 314 -3.3943280577659607e-02</internalNodes>
          <leafValues>
            2.1687759459018707e-01 -1.4907883107662201e-01</leafValues></_>
        <_>
          <internalNodes>
            0 -1 989 1.8358036875724792e-02</internalNodes>
          <leafValues>
            -1.2951919436454773e-01 2.5458532571792603e-01</leafValues></_>
        <_>
          <internalNodes>
            0 -1 347 2.7432853356003761e-02</internalNodes>
          <leafValues>
            -1.6917727887630463e-01 1.7487488687038422e-01</leafValues></_>
        <_>
          <internalNodes>
            0 -1 581 -9.8781445994973183e-03</internalNodes>
          <leafValues>
            4.2421013116836548e-01 -7.2568550705909729e-02</leafValues></_>
        <_>
          <internalNodes>
            0 -1 784 6.9841620279476047e-04</internalNodes>
          <leafValues>
            7.6528392732143402e-02 -3.6901983618736267e-01</leafValues></_>
        <_>
          <internalNodes>
            0 -1 552 2.1780756651423872e-04</internalNodes>
          <leafValues>
            -1.1494690924882889e-01 2.4070060253143311e-01</leafValues></_>
        <_>
          <internalNodes>
            0 -1 865 5.5375054944306612e-04</internalNodes>
          <leafValues>
            9.5668174326419830e-02 -2.9223340749740601e-01</leafValues></_>
        <_>
          <internalNodes>
            0 -1 127 -1.2052720412611961e-02</internalNodes>
          <leafValues>
            1.8992346525192261e-01 -1.4180032908916473e-01</leafValues></_>
        <_>
          <internalNodes>
            0 -1 439 1.1154004931449890e-01</internalNodes>
          <leafValues>
            -8.0739609897136688e-02 3.2461422681808472e-01</leafValues></_>
        <_>
          <internalNodes>
            0 -1 361 -2.2948417067527771e-01</internalNodes>
          <leafValues>
            2.8517886996269226e-01 -1.1929277330636978e-01</leafValues></_>
        <_>
          <internalNodes>
            0 -1 286 7.9713454470038414e-03</internalNodes>
          <leafValues>
            -8.3293914794921875e-02 3.4668368101119995e-01</leafValues></_>
        <_>
          <internalNodes>
            0 -1 589 -5.3027993999421597e-04</internalNodes>
          <leafValues>
            2.1343030035495758e-01 -1.3236327469348907e-01</leafValues></_>
        <_>
          <internalNodes>
            0 -1 261 3.9427742012776434e-04</internalNodes>
          <leafValues>
            5.5056482553482056e-02 -4.6602240204811096e-01</leafValues></_>
        <_>
          <internalNodes>
            0 -1 79 1.7359864432364702e-03</internalNodes>
          <leafValues>
            -8.8370725512504578e-02 3.2046836614608765e-01</leafValues></_>
        <_>
          <internalNodes>
            0 -1 259 -2.6729539968073368e-04</internalNodes>
          <leafValues>
            -2.9405096173286438e-01 1.0160875320434570e-01</leafValues></_>
        <_>
          <internalNodes>
            0 -1 889 1.9052762072533369e-03</internalNodes>
          <leafValues>
            -9.7404897212982178e-02 2.9838672280311584e-01</leafValues></_>
        <_>
          <internalNodes>
            0 -1 1182 6.8920017220079899e-03</internalNodes>
          <leafValues>
            -8.4754571318626404e-02 2.9904463887214661e-01</leafValues></_>
        <_>
          <internalNodes>
            0 -1 799 -2.5700614787638187e-03</internalNodes>
          <leafValues>
            -4.7569707036018372e-01 5.3848762065172195e-02</leafValues></_>
        <_>
          <internalNodes>
            0 -1 10 6.9025829434394836e-03</internalNodes>
          <leafValues>
            -1.6895310580730438e-01 1.4536821842193604e-01</leafValues></_>
        <_>
          <internalNodes>
            0 -1 558 -4.2746692895889282e-02</internalNodes>
          <leafValues>
            -6.8283009529113770e-01 3.4969668835401535e-02</leafValues></_>
        <_>
          <internalNodes>
            0 -1 76 8.5966556798666716e-04</internalNodes>
          <leafValues>
            -7.2244219481945038e-02 3.5758903622627258e-01</leafValues></_>
        <_>
          <internalNodes>
            0 -1 967 1.0696522076614201e-04</internalNodes>
          <leafValues>
            8.4903374314308167e-02 -2.7868524193763733e-01</leafValues></_>
        <_>
          <internalNodes>
            0 -1 58 -4.2183222249150276e-03</internalNodes>
          <leafValues>
            3.1374582648277283e-01 -8.1320531666278839e-02</leafValues></_>
        <_>
          <internalNodes>
            0 -1 464 -2.7511381631484255e-05</internalNodes>
          <leafValues>
            1.4502587914466858e-01 -1.7625248432159424e-01</leafValues></_>
        <_>
          <internalNodes>
            0 -1 534 -2.1521904272958636e-04</internalNodes>
          <leafValues>
            -3.5692653059959412e-01 6.0747984796762466e-02</leafValues></_>
        <_>
          <internalNodes>
            0 -1 1185 -1.1586794862523675e-03</internalNodes>
          <leafValues>
            2.6186004281044006e-01 -9.1677144169807434e-02</leafValues></_>
        <_>
          <internalNodes>
            0 -1 1196 -1.8640965223312378e-02</internalNodes>
          <leafValues>
            -5.6014317274093628e-01 4.6723049134016037e-02</leafValues></_>
        <_>
          <internalNodes>
            0 -1 1180 -2.7939714491367340e-03</internalNodes>
          <leafValues>
            -4.4679489731788635e-01 4.5752327889204025e-02</leafValues></_>
        <_>
          <internalNodes>
            0 -1 1219 8.0733923241496086e-03</internalNodes>
          <leafValues>
            2.8241114690899849e-02 -7.1816408634185791e-01</leafValues></_></weakClassifiers></_>
    <!-- stage 7 -->
    <_>
      <maxWeakCount>59</maxWeakCount>
      <stageThreshold>-1.4362533092498779e+00</stageThreshold>
      <weakClassifiers>
        <_>
          <internalNodes>
            0 -1 337 4.9999907612800598e-02</internalNodes>
          <leafValues>
            -4.8416507244110107e-01 9.8253274336457253e-03</leafValues></_>
        <_>
          <internalNodes>
            0 -1 782 4.2568671051412821e-04</internalNodes>
          <leafValues>
            3.3284965902566910e-02 -6.4356297254562378e-01</leafValues></_>
        <_>
          <internalNodes>
            0 -1 1131 6.2713306397199631e-03</internalNodes>
          <leafValues>
            -1.8060179054737091e-01 2.4290928244590759e-01</leafValues></_>
        <_>
          <internalNodes>
            0 -1 593 6.0510402545332909e-04</internalNodes>
          <leafValues>
            8.4742777049541473e-02 -4.0051817893981934e-01</leafValues></_>
        <_>
          <internalNodes>
            0 -1 717 -1.5220607817173004e-01</internalNodes>
          <leafValues>
            4.2535474896430969e-01 -6.8469464778900146e-02</leafValues></_>
        <_>
          <internalNodes>
            0 -1 18 -2.4973453953862190e-02</internalNodes>
          <leafValues>
            2.1483063697814941e-01 -1.6983208060264587e-01</leafValues></_>
        <_>
          <internalNodes>
            0 -1 394 -8.6363591253757477e-03</internalNodes>
          <leafValues>
            3.2498994469642639e-01 -1.1666925251483917e-01</leafValues></_>
        <_>
          <internalNodes>
            0 -1 456 3.0622999183833599e-03</internalNodes>
          <leafValues>
            -1.0005287081003189e-01 3.0550566315650940e-01</leafValues></_>
        <_>
          <internalNodes>
            0 -1 108 -4.1282298043370247e-03</internalNodes>
          <leafValues>
            1.3963542878627777e-01 -2.0096172392368317e-01</leafValues></_>
        <_>
          <internalNodes>
            0 -1 131 -5.8884145691990852e-03</internalNodes>
          <leafValues>
            -4.2442092299461365e-01 8.1175677478313446e-02</leafValues></_>
        <_>
          <internalNodes>
            0 -1 937 -7.7422766480594873e-04</internalNodes>
          <leafValues>
            -6.2733882665634155e-01 4.7662112861871719e-02</leafValues></_>
        <_>
          <internalNodes>
            0 -1 749 1.2381245382130146e-02</internalNodes>
          <leafValues>
            -8.2085266709327698e-02 4.8773467540740967e-01</leafValues></_>
        <_>
          <internalNodes>
            0 -1 478 3.2977142836898565e-04</internalNodes>
          <leafValues>
            -1.0251237452030182e-01 2.8610822558403015e-01</leafValues></_>
        <_>
          <internalNodes>
            0 -1 367 6.0719333589076996e-02</internalNodes>
          <leafValues>
            -6.6444724798202515e-02 3.7214782834053040e-01</leafValues></_>
        <_>
          <internalNodes>
            0 -1 910 -8.0436076968908310e-03</internalNodes>
          <leafValues>
            1.6058394312858582e-01 -1.6414202749729156e-01</leafValues></_>
        <_>
          <internalNodes>
            0 -1 937 5.1982828881591558e-04</internalNodes>
          <leafValues>
            5.1019910722970963e-02 -5.2185434103012085e-01</leafValues></_>
        <_>
          <internalNodes>
            0 -1 588 1.9790835678577423e-02</internalNodes>
          <leafValues>
            -1.3670487701892853e-01 2.0652557909488678e-01</leafValues></_>
        <_>
          <internalNodes>
            0 -1 425 -1.9324645400047302e-01</internalNodes>
          <leafValues>
            3.6015173792839050e-01 -1.1420885473489761e-01</leafValues></_>
        <_>
          <internalNodes>
            0 -1 223 8.5134181426838040e-04</internalNodes>
          <leafValues>
            -1.0492949932813644e-01 2.6451584696769714e-01</leafValues></_>
        <_>
          <internalNodes>
            0 -1 223 -9.1837713262066245e-04</internalNodes>
          <leafValues>
            2.7553039789199829e-01 -1.1021588742733002e-01</leafValues></_>
        <_>
          <internalNodes>
            0 -1 1060 1.3409577310085297e-02</internalNodes>
          <leafValues>
            -1.1125183105468750e-01 2.3979020118713379e-01</leafValues></_>
        <_>
          <internalNodes>
            0 -1 1148 5.5314053315669298e-04</internalNodes>
          <leafValues>
            6.3841558992862701e-02 -4.2986273765563965e-01</leafValues></_>
        <_>
          <internalNodes>
            0 -1 1148 -6.6669308580458164e-04</internalNodes>
          <leafValues>
            -4.4128841161727905e-01 5.9367369860410690e-02</leafValues></_>
        <_>
          <internalNodes>
            0 -1 374 2.2099849581718445e-01</internalNodes>
          <leafValues>
            -6.6443711519241333e-02 3.8303545117378235e-01</leafValues></_>
        <_>
          <internalNodes>
            0 -1 215 2.8998577967286110e-02</internalNodes>
          <leafValues>
            -5.7080805301666260e-02 4.4648081064224243e-01</leafValues></_>
        <_>
          <internalNodes>
            0 -1 1096 3.3726524561643600e-03</internalNodes>
          <leafValues>
            -7.8521370887756348e-02 3.1181901693344116e-01</leafValues></_>
        <_>
          <internalNodes>
            0 -1 1093 -1.5760369133204222e-03</internalNodes>
          <leafValues>
            2.2234773635864258e-01 -1.1999056488275528e-01</leafValues></_>
        <_>
          <internalNodes>
            0 -1 578 5.9207938611507416e-02</internalNodes>
          <leafValues>
            -6.5401472151279449e-02 3.8065773248672485e-01</leafValues></_>
        <_>
          <internalNodes>
            0 -1 590 -9.7375605255365372e-03</internalNodes>
          <leafValues>
            2.0866417884826660e-01 -1.3229919970035553e-01</leafValues></_>
        <_>
          <internalNodes>
            0 -1 737 2.8376153204590082e-04</internalNodes>
          <leafValues>
            5.8920923620462418e-02 -4.1316694021224976e-01</leafValues></_>
        <_>
          <internalNodes>
            0 -1 222 3.6414916394278407e-04</internalNodes>
          <leafValues>
            -9.9061816930770874e-02 2.3892179131507874e-01</leafValues></_>
        <_>
          <internalNodes>
            0 -1 1203 -4.6456261770799756e-04</internalNodes>
          <leafValues>
            -3.7907785177230835e-01 6.8450927734375000e-02</leafValues></_>
        <_>
          <internalNodes>
            0 -1 238 2.3028382565826178e-04</internalNodes>
          <leafValues>
            -1.0547955334186554e-01 2.2602228820323944e-01</leafValues></_>
        <_>
          <internalNodes>
            0 -1 405 2.5315367383882403e-04</internalNodes>
          <leafValues>
            7.1583226323127747e-02 -3.1463333964347839e-01</leafValues></_>
        <_>
          <internalNodes>
            0 -1 505 5.8928113430738449e-03</internalNodes>
          <leafValues>
            -9.0698823332786560e-02 2.5731971859931946e-01</leafValues></_>
        <_>
          <internalNodes>
            0 -1 123 -1.1539051774889231e-03</internalNodes>
          <leafValues>
            1.4588685333728790e-01 -1.5430462360382080e-01</leafValues></_>
        <_>
          <internalNodes>
            0 -1 437 3.0681714415550232e-01</internalNodes>
          <leafValues>
            -4.2843248695135117e-02 5.5760574340820312e-01</leafValues></_>
        <_>
          <internalNodes>
            0 -1 762 -3.0958320712670684e-04</internalNodes>
          <leafValues>
            1.6236092150211334e-01 -1.4495350420475006e-01</leafValues></_>
        <_>
          <internalNodes>
            0 -1 862 -1.9540727953426540e-04</internalNodes>
          <leafValues>
            1.7594426870346069e-01 -1.2936761975288391e-01</leafValues></_>
        <_>
          <internalNodes>
            0 -1 817 1.7985320300795138e-04</internalNodes>
          <leafValues>
            7.3647364974021912e-02 -3.2664993405342102e-01</leafValues></_>
        <_>
          <internalNodes>
            0 -1 810 8.9568935800343752e-04</internalNodes>
          <leafValues>
            -7.9584538936614990e-02 3.1853088736534119e-01</leafValues></_>
        <_>
          <internalNodes>
            0 -1 37 -1.9992170855402946e-03</internalNodes>
          <leafValues>
            1.7072895169258118e-01 -1.1685347557067871e-01</leafValues></_>
        <_>
          <internalNodes>
            0 -1 226 -1.2622404098510742e-01</internalNodes>
          <leafValues>
            -7.3831343650817871e-01 2.9907390475273132e-02</leafValues></_>
        <_>
          <internalNodes>
            0 -1 121 2.3948177695274353e-03</internalNodes>
          <leafValues>
            -7.3687605559825897e-02 3.0094540119171143e-01</leafValues></_>
        <_>
          <internalNodes>
            0 -1 302 -3.0791197787038982e-05</internalNodes>
          <leafValues>
            1.3559101521968842e-01 -1.5239067375659943e-01</leafValues></_>
        <_>
          <internalNodes>
            0 -1 75 -1.3374540954828262e-02</internalNodes>
          <leafValues>
            2.8725227713584900e-01 -6.9989435374736786e-02</leafValues></_>
        <_>
          <internalNodes>
            0 -1 843 1.8554895650595427e-03</internalNodes>
          <leafValues>
            4.6671301126480103e-02 -4.4484105706214905e-01</leafValues></_>
        <_>
          <internalNodes>
            0 -1 1165 -7.4893434066325426e-04</internalNodes>
          <leafValues>
            3.3300516009330750e-01 -6.8907931447029114e-02</leafValues></_>
        <_>
          <internalNodes>
            0 -1 839 -3.3368617296218872e-03</internalNodes>
          <leafValues>
            -5.1301872730255127e-01 4.3988112360239029e-02</leafValues></_>
        <_>
          <internalNodes>
            0 -1 1044 1.5409609768539667e-03</internalNodes>
          <leafValues>
            -1.0472992807626724e-01 2.2468277812004089e-01</leafValues></_>
        <_>
          <internalNodes>
            0 -1 1086 -4.7872995492070913e-04</internalNodes>
          <leafValues>
            2.7057555317878723e-01 -7.9522408545017242e-02</leafValues></_>
        <_>
          <internalNodes>
            0 -1 634 2.1128082880750299e-04</internalNodes>
          <leafValues>
            7.5619019567966461e-02 -2.8234913945198059e-01</leafValues></_>
        <_>
          <internalNodes>
            0 -1 447 -1.0223337449133396e-03</internalNodes>
          <leafValues>
            1.9416908919811249e-01 -1.0978090018033981e-01</leafValues></_>
        <_>
          <internalNodes>
            0 -1 633 -1.7357844626531005e-04</internalNodes>
          <leafValues>
            -2.6589909195899963e-01 7.3616459965705872e-02</leafValues></_>
        <_>
          <internalNodes>
            0 -1 584 -3.2865725457668304e-02</internalNodes>
          <leafValues>
            2.5154855847358704e-01 -8.6408346891403198e-02</leafValues></_>
        <_>
          <internalNodes>
            0 -1 418 1.7642459133639932e-03</internalNodes>
          <leafValues>
            -1.1191607266664505e-01 1.8562570214271545e-01</leafValues></_>
        <_>
          <internalNodes>
            0 -1 421 -2.1916117984801531e-03</internalNodes>
          <leafValues>
            2.1185505390167236e-01 -1.0195235908031464e-01</leafValues></_>
        <_>
          <internalNodes>
            0 -1 511 2.5041213259100914e-02</internalNodes>
          <leafValues>
            -8.9241109788417816e-02 2.3114931583404541e-01</leafValues></_>
        <_>
          <internalNodes>
            0 -1 956 -2.9110799005138688e-05</internalNodes>
          <leafValues>
            1.5717074275016785e-01 -1.4449125528335571e-01</leafValues></_></weakClassifiers></_>
    <!-- stage 8 -->
    <_>
      <maxWeakCount>67</maxWeakCount>
      <stageThreshold>-1.4312080144882202e+00</stageThreshold>
      <weakClassifiers>
        <_>
          <internalNodes>
            0 -1 1074 5.3001940250396729e-03</internalNodes>
          <leafValues>
            -4.9183210730552673e-01 -2.1276595070958138e-02</leafValues></_>
        <_>
          <internalNodes>
            0 -1 446 -2.7214914560317993e-01</internalNodes>
          <leafValues>
            3.6186361312866211e-01 -1.1763962358236313e-01</leafValues></_>
        <_>
          <internalNodes>
            0 -1 870 2.2966841061133891e-04</internalNodes>
          <leafValues>
            7.7308610081672668e-02 -4.1065001487731934e-01</leafValues></_>
        <_>
          <internalNodes>
            0 -1 494 -1.7380012199282646e-02</internalNodes>
          <leafValues>
            2.6273053884506226e-01 -9.2733636498451233e-02</leafValues></_>
        <_>
          <internalNodes>
            0 -1 1224 -3.2776037696748972e-03</internalNodes>
          <leafValues>
            -4.7125011682510376e-01 5.6815892457962036e-02</leafValues></_>
        <_>
          <internalNodes>
            0 -1 105 -9.4983242452144623e-03</internalNodes>
          <leafValues>
            2.1968317031860352e-01 -1.2981256842613220e-01</leafValues></_>
        <_>
          <internalNodes>
            0 -1 898 2.3364680237136781e-04</internalNodes>
          <leafValues>
            5.8530971407890320e-02 -4.0575703978538513e-01</leafValues></_>
        <_>
          <internalNodes>
            0 -1 536 2.9390593990683556e-02</internalNodes>
          <leafValues>
            -1.1209844052791595e-01 2.2776597738265991e-01</leafValues></_>
        <_>
          <internalNodes>
            0 -1 649 -5.2696978673338890e-03</internalNodes>
          <leafValues>
            2.2809091210365295e-01 -1.1458638310432434e-01</leafValues></_>
        <_>
          <internalNodes>
            0 -1 516 1.8760921433568001e-02</internalNodes>
          <leafValues>
            -5.6986235082149506e-02 3.9627423882484436e-01</leafValues></_>
        <_>
          <internalNodes>
            0 -1 459 -8.9661628007888794e-03</internalNodes>
          <leafValues>
            2.6590517163276672e-01 -9.0518966317176819e-02</leafValues></_>
        <_>
          <internalNodes>
            0 -1 713 1.6409967839717865e-01</internalNodes>
          <leafValues>
            -4.5628819614648819e-02 5.2111989259719849e-01</leafValues></_>
        <_>
          <internalNodes>
            0 -1 1120 1.0711689479649067e-02</internalNodes>
          <leafValues>
            -1.1640710383653641e-01 2.2355166077613831e-01</leafValues></_>
        <_>
          <internalNodes>
            0 -1 256 3.8707591011188924e-04</internalNodes>
          <leafValues>
            5.5395904928445816e-02 -4.4936844706535339e-01</leafValues></_>
        <_>
          <internalNodes>
            0 -1 733 1.7181228846311569e-02</internalNodes>
          <leafValues>
            -1.3309526443481445e-01 1.9892719388008118e-01</leafValues></_>
        <_>
          <internalNodes>
            0 -1 1199 -2.2309998050332069e-02</internalNodes>
          <leafValues>
            -5.3591275215148926e-01 4.9033455550670624e-02</leafValues></_>
        <_>
          <internalNodes>
            0 -1 292 -3.4060240723192692e-03</internalNodes>
          <leafValues>
            2.1678337454795837e-01 -1.1638049036264420e-01</leafValues></_>
        <_>
          <internalNodes>
            0 -1 70 9.2313421191647649e-04</internalNodes>
          <leafValues>
            -9.9188439548015594e-02 2.4804711341857910e-01</leafValues></_>
        <_>
          <internalNodes>
            0 -1 694 -2.2690398327540606e-04</internalNodes>
          <leafValues>
            -4.5019939541816711e-01 5.1112946122884750e-02</leafValues></_>
        <_>
          <internalNodes>
            0 -1 9 -2.1633278578519821e-02</internalNodes>
          <leafValues>
            1.4664925634860992e-01 -1.5895809233188629e-01</leafValues></_>
        <_>
          <internalNodes>
            0 -1 216 1.5059603611007333e-03</internalNodes>
          <leafValues>
            -8.9637547731399536e-02 2.7114677429199219e-01</leafValues></_>
        <_>
          <internalNodes>
            0 -1 1065 -6.7562796175479889e-03</internalNodes>
          <leafValues>
            2.0559331774711609e-01 -1.0391047596931458e-01</leafValues></_>
        <_>
          <internalNodes>
            0 -1 873 -2.0172004587948322e-04</internalNodes>
          <leafValues>
            -4.6032378077507019e-01 4.7651018947362900e-02</leafValues></_>
        <_>
          <internalNodes>
            0 -1 830 -6.5263430587947369e-03</internalNodes>
          <leafValues>
            3.1918123364448547e-01 -7.1783289313316345e-02</leafValues></_>
        <_>
          <internalNodes>
            0 -1 892 -2.6509852614253759e-04</internalNodes>
          <leafValues>
            1.6349279880523682e-01 -1.2756046652793884e-01</leafValues></_>
        <_>
          <internalNodes>
            0 -1 831 2.0155146718025208e-02</internalNodes>
          <leafValues>
            -1.2809082865715027e-01 1.7420987784862518e-01</leafValues></_>
        <_>
          <internalNodes>
            0 -1 793 -1.7308113165199757e-03</internalNodes>
          <leafValues>
            2.4486204981803894e-01 -8.2706369459629059e-02</leafValues></_>
        <_>
          <internalNodes>
            0 -1 1081 -8.6392727098427713e-05</internalNodes>
          <leafValues>
            -3.1239387392997742e-01 6.8918801844120026e-02</leafValues></_>
        <_>
          <internalNodes>
            0 -1 575 7.9161442816257477e-02</internalNodes>
          <leafValues>
            -7.5943514704704285e-02 2.8951743245124817e-01</leafValues></_>
        <_>
          <internalNodes>
            0 -1 520 -4.3915458023548126e-02</internalNodes>
          <leafValues>
            3.3875778317451477e-01 -7.6528497040271759e-02</leafValues></_>
        <_>
          <internalNodes>
            0 -1 470 -2.9038434149697423e-05</internalNodes>
          <leafValues>
            1.1879251152276993e-01 -1.7918390035629272e-01</leafValues></_>
        <_>
          <internalNodes>
            0 -1 149 -4.6414984390139580e-03</internalNodes>
          <leafValues>
            -4.1777563095092773e-01 5.2230734378099442e-02</leafValues></_>
        <_>
          <internalNodes>
            0 -1 753 -2.9656041413545609e-02</internalNodes>
          <leafValues>
            3.2570910453796387e-01 -6.9066926836967468e-02</leafValues></_>
        <_>
          <internalNodes>
            0 -1 310 2.4196015298366547e-01</internalNodes>
          <leafValues>
            -7.6019771397113800e-02 3.1007736921310425e-01</leafValues></_>
        <_>
          <internalNodes>
            0 -1 420 -1.3604408595710993e-03</internalNodes>
          <leafValues>
            3.7405550479888916e-01 -5.7525873184204102e-02</leafValues></_>
        <_>
          <internalNodes>
            0 -1 602 4.2907886207103729e-02</internalNodes>
          <leafValues>
            -9.2438496649265289e-02 2.3820658028125763e-01</leafValues></_>
        <_>
          <internalNodes>
            0 -1 321 -1.5713374316692352e-01</internalNodes>
          <leafValues>
            2.2945135831832886e-01 -1.0559818893671036e-01</leafValues></_>
        <_>
          <internalNodes>
            0 -1 241 3.6317724734544754e-02</internalNodes>
          <leafValues>
            -1.0475697368383408e-01 2.0890763401985168e-01</leafValues></_>
        <_>
          <internalNodes>
            0 -1 1125 -5.3394795395433903e-04</internalNodes>
          <leafValues>
            2.6521721482276917e-01 -7.4434451758861542e-02</leafValues></_>
        <_>
          <internalNodes>
            0 -1 1125 3.1088240211829543e-04</internalNodes>
          <leafValues>
            -1.1199613660573959e-01 2.6166856288909912e-01</leafValues></_>
        <_>
          <internalNodes>
            0 -1 962 9.2681402747984976e-05</internalNodes>
          <leafValues>
            8.3280980587005615e-02 -2.5495836138725281e-01</leafValues></_>
        <_>
          <internalNodes>
            0 -1 738 1.7425620462745428e-03</internalNodes>
          <leafValues>
            2.1382307633757591e-02 -8.2876759767532349e-01</leafValues></_>
        <_>
          <internalNodes>
            0 -1 504 5.1298956386744976e-03</internalNodes>
          <leafValues>
            -7.8384250402450562e-02 2.6404047012329102e-01</leafValues></_>
        <_>
          <internalNodes>
            0 -1 135 5.0759427249431610e-03</internalNodes>
          <leafValues>
            -7.7546022832393646e-02 2.6488357782363892e-01</leafValues></_>
        <_>
          <internalNodes>
            0 -1 172 -3.7022505421191454e-03</internalNodes>
          <leafValues>
            1.9107627868652344e-01 -1.1754397302865982e-01</leafValues></_>
        <_>
          <internalNodes>
            0 -1 355 -8.8212243281304836e-04</internalNodes>
          <leafValues>
            2.2656306624412537e-01 -8.6756832897663116e-02</leafValues></_>
        <_>
          <internalNodes>
            0 -1 189 5.8313426561653614e-03</internalNodes>
          <leafValues>
            3.0528530478477478e-02 -6.3492268323898315e-01</leafValues></_>
        <_>
          <internalNodes>
            0 -1 665 -2.2391709499061108e-03</internalNodes>
          <leafValues>
            1.8818111717700958e-01 -1.0485698282718658e-01</leafValues></_>
        <_>
          <internalNodes>
            0 -1 8 -4.2603635229170322e-03</internalNodes>
          <leafValues>
            -4.7155854105949402e-01 4.2503874748945236e-02</leafValues></_>
        <_>
          <internalNodes>
            0 -1 428 6.6148780751973391e-04</internalNodes>
          <leafValues>
            -7.4827663600444794e-02 2.4897447228431702e-01</leafValues></_>
        <_>
          <internalNodes>
            0 -1 565 -6.8524684756994247e-03</internalNodes>
          <leafValues>
            -4.8856317996978760e-01 4.1887741535902023e-02</leafValues></_>
        <_>
          <internalNodes>
            0 -1 757 -6.6340842749923468e-04</internalNodes>
          <leafValues>
            -4.0437486767768860e-01 4.4233441352844238e-02</leafValues></_>
        <_>
          <internalNodes>
            0 -1 16 -9.1756902635097504e-02</internalNodes>
          <leafValues>
            -8.4806495904922485e-01 1.9886612892150879e-02</leafValues></_>
        <_>
          <internalNodes>
            0 -1 980 -4.2096094693988562e-04</internalNodes>
          <leafValues>
            1.9862778484821320e-01 -9.2069521546363831e-02</leafValues></_>
        <_>
          <internalNodes>
            0 -1 976 1.1457629734650254e-03</internalNodes>
          <leafValues>
            -9.7683772444725037e-02 2.2627773880958557e-01</leafValues></_>
        <_>
          <internalNodes>
            0 -1 1172 -2.0380996284075081e-04</internalNodes>
          <leafValues>
            -3.1510928273200989e-01 5.9113841503858566e-02</leafValues></_>
        <_>
          <internalNodes>
            0 -1 484 1.2032834638375789e-04</internalNodes>
          <leafValues>
            -1.1104580014944077e-01 1.6791315376758575e-01</leafValues></_>
        <_>
          <internalNodes>
            0 -1 742 -4.0629913564771414e-04</internalNodes>
          <leafValues>
            -4.1809648275375366e-01 4.6969626098871231e-02</leafValues></_>
        <_>
          <internalNodes>
            0 -1 350 -3.3486145548522472e-03</internalNodes>
          <leafValues>
            1.6950795054435730e-01 -1.0451959073543549e-01</leafValues></_>
        <_>
          <internalNodes>
            0 -1 38 4.1519096121191978e-03</internalNodes>
          <leafValues>
            5.8243051171302795e-02 -3.1141567230224609e-01</leafValues></_>
        <_>
          <internalNodes>
            0 -1 626 -7.8668799251317978e-03</internalNodes>
          <leafValues>
            2.9746761918067932e-01 -6.2986820936203003e-02</leafValues></_>
        <_>
          <internalNodes>
            0 -1 765 -3.1033123377710581e-05</internalNodes>
          <leafValues>
            1.2923710048198700e-01 -1.3694041967391968e-01</leafValues></_>
        <_>
          <internalNodes>
            0 -1 610 -1.2689475715160370e-01</internalNodes>
          <leafValues>
            2.8274196386337280e-01 -7.0529818534851074e-02</leafValues></_>
        <_>
          <internalNodes>
            0 -1 1167 -5.6866966187953949e-02</internalNodes>
          <leafValues>
            -6.1833828687667847e-01 3.2561186701059341e-02</leafValues></_>
        <_>
          <internalNodes>
            0 -1 1119 1.3369021471589804e-03</internalNodes>
          <leafValues>
            -9.3588560819625854e-02 2.1411821246147156e-01</leafValues></_>
        <_>
          <internalNodes>
            0 -1 363 -2.5642938911914825e-02</internalNodes>
          <leafValues>
            2.0328609645366669e-01 -8.5031203925609589e-02</leafValues></_>
        <_>
          <internalNodes>
            0 -1 1002 1.3513483572751284e-03</internalNodes>
          <leafValues>
            -1.1647025495767593e-01 1.4755554497241974e-01</leafValues></_></weakClassifiers></_>
    <!-- stage 9 -->
    <_>
      <maxWeakCount>74</maxWeakCount>
      <stageThreshold>-1.4150005578994751e+00</stageThreshold>
      <weakClassifiers>
        <_>
          <internalNodes>
            0 -1 1076 -4.2594065889716148e-03</internalNodes>
          <leafValues>
            1.5483871102333069e-02 -4.5483145117759705e-01</leafValues></_>
        <_>
          <internalNodes>
            0 -1 1110 -1.9175169290974736e-04</internalNodes>
          <leafValues>
            -4.3424627184867859e-01 5.1352698355913162e-02</leafValues></_>
        <_>
          <internalNodes>
            0 -1 151 2.8029433451592922e-04</internalNodes>
          <leafValues>
            1.1757344752550125e-01 -3.4936055541038513e-01</leafValues></_>
        <_>
          <internalNodes>
            0 -1 309 -1.9969363510608673e-01</internalNodes>
          <leafValues>
            2.5706705451011658e-01 -1.1073147505521774e-01</leafValues></_>
        <_>
          <internalNodes>
            0 -1 1113 1.6688570030964911e-04</internalNodes>
          <leafValues>
            6.5982699394226074e-02 -3.5917964577674866e-01</leafValues></_>
        <_>
          <internalNodes>
            0 -1 1216 -1.2112557888031006e-02</internalNodes>
          <leafValues>
            -4.1979980468750000e-01 6.7139700055122375e-02</leafValues></_>
        <_>
          <internalNodes>
            0 -1 1190 1.8032107618637383e-04</internalNodes>
          <leafValues>
            -2.2215887904167175e-01 1.1356420069932938e-01</leafValues></_>
        <_>
          <internalNodes>
            0 -1 1015 -9.6797896549105644e-04</internalNodes>
          <leafValues>
            2.2501724958419800e-01 -1.0398229956626892e-01</leafValues></_>
        <_>
          <internalNodes>
            0 -1 1014 4.9505510833114386e-04</internalNodes>
          <leafValues>
            -9.0400099754333496e-02 2.9899695515632629e-01</leafValues></_>
        <_>
          <internalNodes>
            0 -1 166 -2.1597566083073616e-03</internalNodes>
          <leafValues>
            -5.1966482400894165e-01 4.6571183949708939e-02</leafValues></_>
        <_>
          <internalNodes>
            0 -1 313 -5.1628486253321171e-03</internalNodes>
          <leafValues>
            2.6909226179122925e-01 -8.3935521543025970e-02</leafValues></_>
        <_>
          <internalNodes>
            0 -1 20 3.7075221538543701e-02</internalNodes>
          <leafValues>
            -1.5431804955005646e-01 1.4592792093753815e-01</leafValues></_>
        <_>
          <internalNodes>
            0 -1 486 7.0744164288043976e-02</internalNodes>
          <leafValues>
            -5.1058489829301834e-02 4.6044197678565979e-01</leafValues></_>
        <_>
          <internalNodes>
            0 -1 814 -5.0016719615086913e-04</internalNodes>
          <leafValues>
            -4.7350803017616272e-01 4.4744353741407394e-02</leafValues></_>
        <_>
          <internalNodes>
            0 -1 814 2.8760405257344246e-04</internalNodes>
          <leafValues>
            5.4708044975996017e-02 -4.5445689558982849e-01</leafValues></_>
        <_>
          <internalNodes>
            0 -1 138 -1.6492751892656088e-03</internalNodes>
          <leafValues>
            1.0570668429136276e-01 -2.1746146678924561e-01</leafValues></_>
        <_>
          <internalNodes>
            0 -1 763 8.3771869540214539e-03</internalNodes>
          <leafValues>
            -1.2344177812337875e-01 1.7848657071590424e-01</leafValues></_>
        <_>
          <internalNodes>
            0 -1 414 -9.8457541316747665e-03</internalNodes>
          <leafValues>
            3.1752672791481018e-01 -7.0320002734661102e-02</leafValues></_>
        <_>
          <internalNodes>
            0 -1 543 4.9003027379512787e-03</internalNodes>
          <leafValues>
            -9.8305024206638336e-02 2.5701522827148438e-01</leafValues></_>
        <_>
          <internalNodes>
            0 -1 994 -1.2591646052896976e-02</internalNodes>
          <leafValues>
            2.4387058615684509e-01 -8.2321904599666595e-02</leafValues></_>
        <_>
          <internalNodes>
            0 -1 922 -3.5458157071843743e-04</internalNodes>
          <leafValues>
            1.4406889677047729e-01 -1.4096117019653320e-01</leafValues></_>
        <_>
          <internalNodes>
            0 -1 432 -5.0694033503532410e-02</internalNodes>
          <leafValues>
            2.6874154806137085e-01 -8.3047650754451752e-02</leafValues></_>
        <_>
          <internalNodes>
            0 -1 280 1.6712612705305219e-03</internalNodes>
          <leafValues>
            -1.0170295834541321e-01 1.9324499368667603e-01</leafValues></_>
        <_>
          <internalNodes>
            0 -1 951 2.8960509225726128e-03</internalNodes>
          <leafValues>
            3.6265276372432709e-02 -5.2855014801025391e-01</leafValues></_>
        <_>
          <internalNodes>
            0 -1 1098 8.1297219730913639e-04</internalNodes>
          <leafValues>
            -6.1904788017272949e-02 3.1749615073204041e-01</leafValues></_>
        <_>
          <internalNodes>
            0 -1 1031 3.1498903990723193e-04</internalNodes>
          <leafValues>
            5.6026160717010498e-02 -3.2906189560890198e-01</leafValues></_>
        <_>
          <internalNodes>
            0 -1 872 1.6687198076397181e-03</internalNodes>
          <leafValues>
            -1.2176670134067535e-01 1.7934432625770569e-01</leafValues></_>
        <_>
          <internalNodes>
            0 -1 885 7.9940140247344971e-02</internalNodes>
          <leafValues>
            -9.3586325645446777e-02 2.4124164879322052e-01</leafValues></_>
        <_>
          <internalNodes>
            0 -1 176 -7.9571479000151157e-04</internalNodes>
          <leafValues>
            1.4386206865310669e-01 -1.6513913869857788e-01</leafValues></_>
        <_>
          <internalNodes>
            0 -1 316 -5.1715713925659657e-04</internalNodes>
          <leafValues>
            1.5819716453552246e-01 -1.2590253353118896e-01</leafValues></_>
        <_>
          <internalNodes>
            0 -1 344 2.8416424174793065e-04</internalNodes>
          <leafValues>
            4.8157367855310440e-02 -3.7230589985847473e-01</leafValues></_>
        <_>
          <internalNodes>
            0 -1 1090 -4.6749800094403327e-04</internalNodes>
          <leafValues>
            2.3242701590061188e-01 -8.2650400698184967e-02</leafValues></_>
        <_>
          <internalNodes>
            0 -1 190 1.4225567691028118e-02</internalNodes>
          <leafValues>
            -8.2387037575244904e-02 2.2254915535449982e-01</leafValues></_>
        <_>
          <internalNodes>
            0 -1 262 -1.7499052919447422e-03</internalNodes>
          <leafValues>
            -4.3403843045234680e-01 4.9540288746356964e-02</leafValues></_>
        <_>
          <internalNodes>
            0 -1 378 -3.5401266068220139e-03</internalNodes>
          <leafValues>
            2.5840884447097778e-01 -7.8325405716896057e-02</leafValues></_>
        <_>
          <internalNodes>
            0 -1 1181 1.5481406822800636e-02</internalNodes>
          <leafValues>
            3.0191401019692421e-02 -6.2223142385482788e-01</leafValues></_>
        <_>
          <internalNodes>
            0 -1 19 -1.8498700112104416e-02</internalNodes>
          <leafValues>
            2.6876914501190186e-01 -7.7689915895462036e-02</leafValues></_>
        <_>
          <internalNodes>
            0 -1 604 -2.3357231169939041e-02</internalNodes>
          <leafValues>
            -6.2630289793014526e-01 2.8391623869538307e-02</leafValues></_>
        <_>
          <internalNodes>
            0 -1 385 1.7512107733637094e-03</internalNodes>
          <leafValues>
            -8.6954347789287567e-02 2.1037340164184570e-01</leafValues></_>
        <_>
          <internalNodes>
            0 -1 14 7.4009977281093597e-02</internalNodes>
          <leafValues>
            2.9063293710350990e-02 -5.9205603599548340e-01</leafValues></_>
        <_>
          <internalNodes>
            0 -1 1130 -3.7026315927505493e-02</internalNodes>
          <leafValues>
            -8.3698099851608276e-01 1.6062377020716667e-02</leafValues></_>
        <_>
          <internalNodes>
            0 -1 1100 -8.6177024058997631e-05</internalNodes>
          <leafValues>
            1.1971680819988251e-01 -1.3797958195209503e-01</leafValues></_>
        <_>
          <internalNodes>
            0 -1 384 1.2900109402835369e-02</internalNodes>
          <leafValues>
            -6.2305130064487457e-02 2.9956963658332825e-01</leafValues></_>
        <_>
          <internalNodes>
            0 -1 916 1.1367390397936106e-03</internalNodes>
          <leafValues>
            4.8681799322366714e-02 -3.6556521058082581e-01</leafValues></_>
        <_>
          <internalNodes>
            0 -1 1133 -8.0984469968825579e-04</internalNodes>
          <leafValues>
            2.2635973989963531e-01 -8.1592865288257599e-02</leafValues></_>
        <_>
          <internalNodes>
            0 -1 1091 -7.8457524068653584e-04</internalNodes>
          <leafValues>
            1.8130612373352051e-01 -8.9494831860065460e-02</leafValues></_>
        <_>
          <internalNodes>
            0 -1 1213 1.4197636395692825e-02</internalNodes>
          <leafValues>
            -1.1016362905502319e-01 1.6777627170085907e-01</leafValues></_>
        <_>
          <internalNodes>
            0 -1 627 -2.2303106263279915e-02</internalNodes>
          <leafValues>
            2.2217765450477600e-01 -9.1383099555969238e-02</leafValues></_>
        <_>
          <internalNodes>
            0 -1 203 -7.0382907986640930e-02</internalNodes>
          <leafValues>
            1.4826630055904388e-01 -1.4355511963367462e-01</leafValues></_>
        <_>
          <internalNodes>
            0 -1 364 2.2404447197914124e-01</internalNodes>
          <leafValues>
            -3.4106418490409851e-02 5.4338842630386353e-01</leafValues></_>
        <_>
          <internalNodes>
            0 -1 542 1.3787131756544113e-02</internalNodes>
          <leafValues>
            -6.1349913477897644e-02 2.8674933314323425e-01</leafValues></_>
        <_>
          <internalNodes>
            0 -1 1141 3.3499211072921753e-02</internalNodes>
          <leafValues>
            2.5451552122831345e-02 -7.4638402462005615e-01</leafValues></_>
        <_>
          <internalNodes>
            0 -1 786 9.8758639069274068e-05</internalNodes>
          <leafValues>
            6.1057116836309433e-02 -2.7432593703269958e-01</leafValues></_>
        <_>
          <internalNodes>
            0 -1 336 -1.4834242174401879e-03</internalNodes>
          <leafValues>
            2.0048210024833679e-01 -9.0955644845962524e-02</leafValues></_>
        <_>
          <internalNodes>
            0 -1 854 -1.4412504242500290e-05</internalNodes>
          <leafValues>
            1.2626229226589203e-01 -1.3873240351676941e-01</leafValues></_>
        <_>
          <internalNodes>
            0 -1 574 -5.1394030451774597e-03</internalNodes>
          <leafValues>
            2.0835393667221069e-01 -1.0415380448102951e-01</leafValues></_>
        <_>
          <internalNodes>
            0 -1 23 1.3015758246183395e-02</internalNodes>
          <leafValues>
            -8.1333376467227936e-02 2.2094887495040894e-01</leafValues></_>
        <_>
          <internalNodes>
            0 -1 139 -8.5936784744262695e-03</internalNodes>
          <leafValues>
            -6.3101571798324585e-01 2.6195978745818138e-02</leafValues></_>
        <_>
          <internalNodes>
            0 -1 628 -8.0362901091575623e-02</internalNodes>
          <leafValues>
            3.7651109695434570e-01 -4.9289170652627945e-02</leafValues></_>
        <_>
          <internalNodes>
            0 -1 966 1.6542545927222818e-04</internalNodes>
          <leafValues>
            7.0471093058586121e-02 -2.4873284995555878e-01</leafValues></_>
        <_>
          <internalNodes>
            0 -1 1049 2.0599357783794403e-02</internalNodes>
          <leafValues>
            3.4397199749946594e-02 -4.8621839284896851e-01</leafValues></_>
        <_>
          <internalNodes>
            0 -1 1219 4.4908160343766212e-03</internalNodes>
          <leafValues>
            4.5109268277883530e-02 -3.7880849838256836e-01</leafValues></_>
        <_>
          <internalNodes>
            0 -1 631 4.0867432951927185e-02</internalNodes>
          <leafValues>
            -4.3027840554714203e-02 4.4482934474945068e-01</leafValues></_>
        <_>
          <internalNodes>
            0 -1 1007 -1.2209516717121005e-03</internalNodes>
          <leafValues>
            2.0940890908241272e-01 -8.1234760582447052e-02</leafValues></_>
        <_>
          <internalNodes>
            0 -1 1009 -5.3759739967063069e-04</internalNodes>
          <leafValues>
            2.6197519898414612e-01 -7.0488043129444122e-02</leafValues></_>
        <_>
          <internalNodes>
            0 -1 957 -8.1922078970819712e-04</internalNodes>
          <leafValues>
            1.6241213679313660e-01 -1.0841986536979675e-01</leafValues></_>
        <_>
          <internalNodes>
            0 -1 685 -3.3242307836189866e-04</internalNodes>
          <leafValues>
            -2.7703180909156799e-01 6.4044117927551270e-02</leafValues></_>
        <_>
          <internalNodes>
            0 -1 680 3.6366214044392109e-04</internalNodes>
          <leafValues>
            7.2906024754047394e-02 -2.8023752570152283e-01</leafValues></_>
        <_>
          <internalNodes>
            0 -1 80 -1.6570365987718105e-03</internalNodes>
          <leafValues>
            1.7638348042964935e-01 -1.0021737217903137e-01</leafValues></_>
        <_>
          <internalNodes>
            0 -1 1066 -5.9245072770863771e-04</internalNodes>
          <leafValues>
            1.4950655400753021e-01 -1.2171393632888794e-01</leafValues></_>
        <_>
          <internalNodes>
            0 -1 864 -3.0509085627272725e-04</internalNodes>
          <leafValues>
            1.4646723866462708e-01 -1.2172266095876694e-01</leafValues></_>
        <_>
          <internalNodes>
            0 -1 844 6.1663673259317875e-03</internalNodes>
          <leafValues>
            -6.3853427767753601e-02 2.7649772167205811e-01</leafValues></_>
        <_>
          <internalNodes>
            0 -1 986 -1.1417220812290907e-03</internalNodes>
          <leafValues>
            1.8793688714504242e-01 -9.8494261503219604e-02</leafValues></_>
        <_>
          <internalNodes>
            0 -1 515 4.0670398622751236e-02</internalNodes>
          <leafValues>
            -4.1857235133647919e-02 4.3956094980239868e-01</leafValues></_></weakClassifiers></_>
    <!-- stage 10 -->
    <_>
      <maxWeakCount>83</maxWeakCount>
      <stageThreshold>-1.4098918437957764e+00</stageThreshold>
      <weakClassifiers>
        <_>
          <internalNodes>
            0 -1 387 -7.7809542417526245e-02</internalNodes>
          <leafValues>
            8.5957445204257965e-02 -4.3544042110443115e-01</leafValues></_>
        <_>
          <internalNodes>
            0 -1 133 -2.7064117603003979e-05</internalNodes>
          <leafValues>
            7.0470198988914490e-02 -2.9994428157806396e-01</leafValues></_>
        <_>
          <internalNodes>
            0 -1 929 2.5658303638920188e-04</internalNodes>
          <leafValues>
            6.5140239894390106e-02 -3.9263483881950378e-01</leafValues></_>
        <_>
          <internalNodes>
            0 -1 527 5.1395252346992493e-02</internalNodes>
          <leafValues>
            -9.6790030598640442e-02 2.8528627753257751e-01</leafValues></_>
        <_>
          <internalNodes>
            0 -1 1226 3.2432652078568935e-03</internalNodes>
          <leafValues>
            9.4622738659381866e-02 -3.8840681314468384e-01</leafValues></_>
        <_>
          <internalNodes>
            0 -1 1198 -1.0062059387564659e-02</internalNodes>
          <leafValues>
            -3.8561439514160156e-01 4.9384448677301407e-02</leafValues></_>
        <_>
          <internalNodes>
            0 -1 653 -1.5696145594120026e-02</internalNodes>
          <leafValues>
            2.2197674214839935e-01 -9.7640052437782288e-02</leafValues></_>
        <_>
          <internalNodes>
            0 -1 906 9.4491215422749519e-03</internalNodes>
          <leafValues>
            -1.4626355469226837e-01 1.7717745900154114e-01</leafValues></_>
        <_>
          <internalNodes>
            0 -1 1059 -8.7547767907381058e-03</internalNodes>
          <leafValues>
            2.3130407929420471e-01 -8.3270058035850525e-02</leafValues></_>
        <_>
          <internalNodes>
            0 -1 811 2.9987815651111305e-04</internalNodes>
          <leafValues>
            6.8506516516208649e-02 -2.6623722910881042e-01</leafValues></_>
        <_>
          <internalNodes>
            0 -1 1095 3.0646375380456448e-03</internalNodes>
          <leafValues>
            -6.7331865429878235e-02 2.8465628623962402e-01</leafValues></_>
        <_>
          <internalNodes>
            0 -1 1035 1.6214378178119659e-02</internalNodes>
          <leafValues>
            -1.1731512099504471e-01 1.6529898345470428e-01</leafValues></_>
        <_>
          <internalNodes>
            0 -1 999 2.1450384519994259e-04</internalNodes>
          <leafValues>
            7.9309716820716858e-02 -2.8750988841056824e-01</leafValues></_>
        <_>
          <internalNodes>
            0 -1 498 -1.6661003232002258e-02</internalNodes>
          <leafValues>
            3.2758063077926636e-01 -6.1791315674781799e-02</leafValues></_>
        <_>
          <internalNodes>
            0 -1 436 4.5864428393542767e-03</internalNodes>
          <leafValues>
            -9.3267440795898438e-02 2.5062146782875061e-01</leafValues></_>
        <_>
          <internalNodes>
            0 -1 341 -7.5804465450346470e-04</internalNodes>
          <leafValues>
            1.4637073874473572e-01 -1.3157966732978821e-01</leafValues></_>
        <_>
          <internalNodes>
            0 -1 182 -2.3896631319075823e-04</internalNodes>
          <leafValues>
            -3.8289266824722290e-01 6.0077365487813950e-02</leafValues></_>
        <_>
          <internalNodes>
            0 -1 182 2.2597289353143424e-04</internalNodes>
          <leafValues>
            5.8730263262987137e-02 -3.2494339346885681e-01</leafValues></_>
        <_>
          <internalNodes>
            0 -1 423 5.5297603830695152e-04</internalNodes>
          <leafValues>
            -7.2937972843647003e-02 2.8661423921585083e-01</leafValues></_>
        <_>
          <internalNodes>
            0 -1 423 -2.4935175315476954e-04</internalNodes>
          <leafValues>
            1.9863197207450867e-01 -9.8771817982196808e-02</leafValues></_>
        <_>
          <internalNodes>
            0 -1 339 3.2249714422505349e-05</internalNodes>
          <leafValues>
            -1.6106602549552917e-01 1.2593723833560944e-01</leafValues></_>
        <_>
          <internalNodes>
            0 -1 311 -3.1328322365880013e-03</internalNodes>
          <leafValues>
            2.3255802690982819e-01 -8.3142027258872986e-02</leafValues></_>
        <_>
          <internalNodes>
            0 -1 657 2.9098045825958252e-01</internalNodes>
          <leafValues>
            -4.2601186782121658e-02 4.5485085248947144e-01</leafValues></_>
        <_>
          <internalNodes>
            0 -1 979 -9.9849235266447067e-03</internalNodes>
          <leafValues>
            2.2230514883995056e-01 -8.9518912136554718e-02</leafValues></_>
        <_>
          <internalNodes>
            0 -1 480 1.6085164621472359e-02</internalNodes>
          <leafValues>
            -5.5787898600101471e-02 3.6255913972854614e-01</leafValues></_>
        <_>
          <internalNodes>
            0 -1 703 -1.0506269522011280e-02</internalNodes>
          <leafValues>
            3.2351535558700562e-01 -6.8013519048690796e-02</leafValues></_>
        <_>
          <internalNodes>
            0 -1 748 3.6038473248481750e-02</internalNodes>
          <leafValues>
            -1.5123631060123444e-01 1.4115585386753082e-01</leafValues></_>
        <_>
          <internalNodes>
            0 -1 1111 1.2039323337376118e-03</internalNodes>
          <leafValues>
            3.9221253246068954e-02 -5.1349860429763794e-01</leafValues></_>
        <_>
          <internalNodes>
            0 -1 695 -4.2538605630397797e-02</internalNodes>
          <leafValues>
            -7.5947183370590210e-01 2.0926961675286293e-02</leafValues></_>
        <_>
          <internalNodes>
            0 -1 126 -6.5059177577495575e-03</internalNodes>
          <leafValues>
            2.4168069660663605e-01 -8.1256151199340820e-02</leafValues></_>
        <_>
          <internalNodes>
            0 -1 59 -3.6815665662288666e-03</internalNodes>
          <leafValues>
            2.3718322813510895e-01 -8.7436541914939880e-02</leafValues></_>
        <_>
          <internalNodes>
            0 -1 700 -1.5584405511617661e-02</internalNodes>
          <leafValues>
            -4.3116477131843567e-01 4.4298388063907623e-02</leafValues></_>
        <_>
          <internalNodes>
            0 -1 1069 -9.4911064952611923e-03</internalNodes>
          <leafValues>
            2.0980148017406464e-01 -8.4517151117324829e-02</leafValues></_>
        <_>
          <internalNodes>
            0 -1 726 -2.8762573492713273e-05</internalNodes>
          <leafValues>
            1.4288398623466492e-01 -1.3629904389381409e-01</leafValues></_>
        <_>
          <internalNodes>
            0 -1 462 1.1933201923966408e-02</internalNodes>
          <leafValues>
            -7.2241492569446564e-02 2.6064786314964294e-01</leafValues></_>
        <_>
          <internalNodes>
            0 -1 688 1.3638450764119625e-04</internalNodes>
          <leafValues>
            6.2265891581773758e-02 -2.9060119390487671e-01</leafValues></_>
        <_>
          <internalNodes>
            0 -1 1077 2.6910686865448952e-03</internalNodes>
          <leafValues>
            -1.5162558853626251e-01 1.2733858823776245e-01</leafValues></_>
        <_>
          <internalNodes>
            0 -1 1211 -2.1410273620858788e-04</internalNodes>
          <leafValues>
            -3.7061008810997009e-01 4.5126609504222870e-02</leafValues></_>
        <_>
          <internalNodes>
            0 -1 1085 6.2071200227364898e-04</internalNodes>
          <leafValues>
            -6.3335500657558441e-02 2.5696179270744324e-01</leafValues></_>
        <_>
          <internalNodes>
            0 -1 202 -2.1711012814193964e-03</internalNodes>
          <leafValues>
            1.6697289049625397e-01 -9.7249247133731842e-02</leafValues></_>
        <_>
          <internalNodes>
            0 -1 730 2.5852804537862539e-04</internalNodes>
          <leafValues>
            7.2610490024089813e-02 -2.3691317439079285e-01</leafValues></_>
        <_>
          <internalNodes>
            0 -1 113 -1.0976387187838554e-02</internalNodes>
          <leafValues>
            -4.2436522245407104e-01 3.6109127104282379e-02</leafValues></_>
        <_>
          <internalNodes>
            0 -1 673 -5.7691145688295364e-02</internalNodes>
          <leafValues>
            5.7303875684738159e-01 -3.3962436020374298e-02</leafValues></_>
        <_>
          <internalNodes>
            0 -1 797 -1.2250456493347883e-03</internalNodes>
          <leafValues>
            1.9623336195945740e-01 -8.1201121211051941e-02</leafValues></_>
        <_>
          <internalNodes>
            0 -1 834 -2.7868420147569850e-05</internalNodes>
          <leafValues>
            1.2744362652301788e-01 -1.1743681132793427e-01</leafValues></_>
        <_>
          <internalNodes>
            0 -1 31 -7.1624062955379486e-02</internalNodes>
          <leafValues>
            -8.7239056825637817e-01 1.7546501010656357e-02</leafValues></_>
        <_>
          <internalNodes>
            0 -1 1177 -1.8148456001654267e-04</internalNodes>
          <leafValues>
            -2.2364041209220886e-01 6.3922084867954254e-02</leafValues></_>
        <_>
          <internalNodes>
            0 -1 741 -3.9993128739297390e-03</internalNodes>
          <leafValues>
            1.7191398143768311e-01 -1.0213011503219604e-01</leafValues></_>
        <_>
          <internalNodes>
            0 -1 52 -6.5924927592277527e-02</internalNodes>
          <leafValues>
            2.4772050976753235e-01 -7.2774179279804230e-02</leafValues></_>
        <_>
          <internalNodes>
            0 -1 672 -2.0738216699101031e-04</internalNodes>
          <leafValues>
            1.4005729556083679e-01 -1.4370426535606384e-01</leafValues></_>
        <_>
          <internalNodes>
            0 -1 454 1.2218980118632317e-02</internalNodes>
          <leafValues>
            -6.8693317472934723e-02 2.5390154123306274e-01</leafValues></_>
        <_>
          <internalNodes>
            0 -1 572 -2.5618828367441893e-03</internalNodes>
          <leafValues>
            1.7882919311523438e-01 -1.2827907502651215e-01</leafValues></_>
        <_>
          <internalNodes>
            0 -1 438 -2.3577746003866196e-02</internalNodes>
          <leafValues>
            1.4979842305183411e-01 -1.3630352914333344e-01</leafValues></_>
        <_>
          <internalNodes>
            0 -1 200 -5.2240520715713501e-02</internalNodes>
          <leafValues>
            2.5048387050628662e-01 -7.8742831945419312e-02</leafValues></_>
        <_>
          <internalNodes>
            0 -1 512 -7.9689710400998592e-04</internalNodes>
          <leafValues>
            1.3926935195922852e-01 -1.2966455519199371e-01</leafValues></_>
        <_>
          <internalNodes>
            0 -1 231 1.7248797416687012e-01</internalNodes>
          <leafValues>
            3.7076156586408615e-02 -4.6839824318885803e-01</leafValues></_>
        <_>
          <internalNodes>
            0 -1 607 -3.0895915627479553e-01</internalNodes>
          <leafValues>
            -7.5853991508483887e-01 2.0211793482303619e-02</leafValues></_>
        <_>
          <internalNodes>
            0 -1 1202 -9.2581263743340969e-05</internalNodes>
          <leafValues>
            -2.5122946500778198e-01 6.8820193409919739e-02</leafValues></_>
        <_>
          <internalNodes>
            0 -1 154 1.3046145904809237e-03</internalNodes>
          <leafValues>
            7.8056164085865021e-02 -2.1663284301757812e-01</leafValues></_>
        <_>
          <internalNodes>
            0 -1 933 -3.2062036916613579e-04</internalNodes>
          <leafValues>
            2.0598478615283966e-01 -9.0750291943550110e-02</leafValues></_>
        <_>
          <internalNodes>
            0 -1 273 1.9149105995893478e-02</internalNodes>
          <leafValues>
            -4.6063408255577087e-02 3.3045998215675354e-01</leafValues></_>
        <_>
          <internalNodes>
            0 -1 792 -6.9148722104728222e-04</internalNodes>
          <leafValues>
            2.0007120072841644e-01 -8.8773176074028015e-02</leafValues></_>
        <_>
          <internalNodes>
            0 -1 264 8.4939878433942795e-03</internalNodes>
          <leafValues>
            -1.3216276466846466e-01 1.2689216434955597e-01</leafValues></_>
        <_>
          <internalNodes>
            0 -1 39 -3.1084012240171432e-02</internalNodes>
          <leafValues>
            3.2823783159255981e-01 -5.6695189327001572e-02</leafValues></_>
        <_>
          <internalNodes>
            0 -1 881 3.8689828943461180e-03</internalNodes>
          <leafValues>
            3.3242538571357727e-02 -6.1073696613311768e-01</leafValues></_>
        <_>
          <internalNodes>
            0 -1 207 -4.1996598243713379e-01</internalNodes>
          <leafValues>
            3.5203158855438232e-01 -5.1942255347967148e-02</leafValues></_>
        <_>
          <internalNodes>
            0 -1 677 2.0950604230165482e-02</internalNodes>
          <leafValues>
            -1.2611266970634460e-01 1.6323077678680420e-01</leafValues></_>
        <_>
