<?xml version="1.0"?>
<opencv_storage>
<stage18>
  <maxWeakCount>100</maxWeakCount>
  <stageThreshold>-1.4192957878112793e+00</stageThreshold>
  <weakClassifiers>
    <_>
      <internalNodes>
        0 -1 45797 -1.1091268062591553e-01</internalNodes>
      <leafValues>
        1.5116278827190399e-01 -3.9608433842658997e-01</leafValues></_>
    <_>
      <internalNodes>
        0 -1 13034 3.1418912112712860e-03</internalNodes>
      <leafValues>
        -1.1669129133224487e-01 2.0465141534805298e-01</leafValues></_>
    <_>
      <internalNodes>
        0 -1 37962 5.9080019127577543e-05</internalNodes>
      <leafValues>
        5.9953432530164719e-02 -2.4545264244079590e-01</leafValues></_>
    <_>
      <internalNodes>
        0 -1 10369 -1.1885963380336761e-01</internalNodes>
      <leafValues>
        -5.0462466478347778e-01 8.1673555076122284e-02</leafValues></_>
    <_>
      <internalNodes>
        0 -1 57154 -4.0126955509185791e-01</internalNodes>
      <leafValues>
        8.5284352302551270e-01 -6.4701139926910400e-02</leafValues></_>
    <_>
      <internalNodes>
        0 -1 161931 -5.0524214748293161e-04</internalNodes>
      <leafValues>
        -2.4504181742668152e-01 5.1199436187744141e-02</leafValues></_>
    <_>
      <internalNodes>
        0 -1 85884 -6.1424775049090385e-03</internalNodes>
      <leafValues>
        -3.8477346301078796e-01 4.3241780251264572e-02</leafValues></_>
    <_>
      <internalNodes>
        0 -1 75565 -3.1815680861473083e-01</internalNodes>
      <leafValues>
        -7.2650289535522461e-01 4.6573359519243240e-02</leafValues></_>
    <_>
      <internalNodes>
        0 -1 127851 1.8665325478650630e-04</internalNodes>
      <leafValues>
        5.1993221044540405e-02 -2.5631225109100342e-01</leafValues></_>
    <_>
      <internalNodes>
        0 -1 122284 2.8146947734057903e-03</internalNodes>
      <leafValues>
        -1.9309678673744202e-01 7.1660719811916351e-02</leafValues></_>
    <_>
      <internalNodes>
        0 -1 153346 -5.8335415087640285e-04</internalNodes>
      <leafValues>
        2.1596954762935638e-01 -6.3510969281196594e-02</leafValues></_>
    <_>
      <internalNodes>
        0 -1 139078 8.3819701103493571e-05</internalNodes>
      <leafValues>
        6.2821626663208008e-02 -2.0280346274375916e-01</leafValues></_>
    <_>
      <internalNodes>
        0 -1 95582 -2.2558534145355225e-01</internalNodes>
      <leafValues>
        2.4190731346607208e-01 -5.5044218897819519e-02</leafValues></_>
    <_>
      <internalNodes>
        0 -1 103602 -3.8174939155578613e-01</internalNodes>
      <leafValues>
        -6.0981786251068115e-01 1.5848372131586075e-02</leafValues></_>
    <_>
      <internalNodes>
        0 -1 7412 8.6262670811265707e-04</internalNodes>
      <leafValues>
        -4.9651157110929489e-02 2.6801088452339172e-01</leafValues></_>
    <_>
      <internalNodes>
        0 -1 112548 -4.7776423394680023e-02</internalNodes>
      <leafValues>
        4.8919916152954102e-01 -2.9505018144845963e-02</leafValues></_>
    <_>
      <internalNodes>
        0 -1 151759 -8.5280844359658659e-05</internalNodes>
      <leafValues>
        1.3355171680450439e-01 -9.7403466701507568e-02</leafValues></_>
    <_>
      <internalNodes>
        0 -1 162099 2.6866316329687834e-04</internalNodes>
      <leafValues>
        4.9593895673751831e-02 -2.7241086959838867e-01</leafValues></_>
    <_>
      <internalNodes>
        0 -1 80750 -7.5909469160251319e-05</internalNodes>
      <leafValues>
        1.2105646729469299e-01 -1.1257411539554596e-01</leafValues></_>
    <_>
      <internalNodes>
        0 -1 71996 1.0836173780262470e-02</internalNodes>
      <leafValues>
        -4.7971911728382111e-02 2.8005504608154297e-01</leafValues></_>
    <_>
      <internalNodes>
        0 -1 147278 -1.5630988636985421e-03</internalNodes>
      <leafValues>
        1.4691941440105438e-01 -8.6301892995834351e-02</leafValues></_>
    <_>
      <internalNodes>
        0 -1 41456 3.1691902875900269e-01</internalNodes>
      <leafValues>
        -2.7487959712743759e-02 4.9066287279129028e-01</leafValues></_>
    <_>
      <internalNodes>
        0 -1 162331 -1.9420646131038666e-03</internalNodes>
      <leafValues>
        -4.3214765191078186e-01 2.9558964073657990e-02</leafValues></_>
    <_>
      <internalNodes>
        0 -1 133266 -2.3550415062345564e-04</internalNodes>
      <leafValues>
        1.4458605647087097e-01 -9.0285539627075195e-02</leafValues></_>
    <_>
      <internalNodes>
        0 -1 120792 5.5750356987118721e-03</internalNodes>
      <leafValues>
        -4.3881852179765701e-02 2.8937444090843201e-01</leafValues></_>
    <_>
      <internalNodes>
        0 -1 12805 1.6956028994172812e-03</internalNodes>
      <leafValues>
        3.2014574855566025e-02 -3.8161548972129822e-01</leafValues></_>
    <_>
      <internalNodes>
        0 -1 57792 8.6469791131094098e-04</internalNodes>
      <leafValues>
        -9.0894348919391632e-02 1.4039529860019684e-01</leafValues></_>
    <_>
      <internalNodes>
        0 -1 68124 2.3433968890458345e-03</internalNodes>
      <leafValues>
        1.9766381010413170e-02 -6.4297991991043091e-01</leafValues></_>
    <_>
      <internalNodes>
        0 -1 91594 1.6682852059602737e-02</internalNodes>
      <leafValues>
        -3.6290656775236130e-02 3.7601739168167114e-01</leafValues></_>
    <_>
      <internalNodes>
        0 -1 135046 -1.0690433904528618e-02</internalNodes>
      <leafValues>
        -7.2320395708084106e-01 1.8884863704442978e-02</leafValues></_>
    <_>
      <internalNodes>
        0 -1 74776 -8.9471358805894852e-03</internalNodes>
      <leafValues>
        1.6354541480541229e-01 -7.5059488415718079e-02</leafValues></_>
    <_>
      <internalNodes>
        0 -1 49844 1.1338509619235992e-02</internalNodes>
      <leafValues>
        -1.3597509264945984e-01 1.3022080063819885e-01</leafValues></_>
    <_>
      <internalNodes>
        0 -1 84281 -3.1111100688576698e-03</internalNodes>
      <leafValues>
        1.5766853094100952e-01 -8.3600901067256927e-02</leafValues></_>
    <_>
      <internalNodes>
        0 -1 115597 4.5703593641519547e-03</internalNodes>
      <leafValues>
        4.8714149743318558e-02 -2.8364434838294983e-01</leafValues></_>
    <_>
      <internalNodes>
        0 -1 160827 -3.7940399488434196e-04</internalNodes>
      <leafValues>
        1.5139083564281464e-01 -8.3387002348899841e-02</leafValues></_>
    <_>
      <internalNodes>
        0 -1 15004 2.1489646285772324e-02</internalNodes>
      <leafValues>
        -6.9402158260345459e-02 1.8524365127086639e-01</leafValues></_>
    <_>
      <internalNodes>
        0 -1 11584 -1.7313003540039062e-02</internalNodes>
      <leafValues>
        1.7120142281055450e-01 -7.8993842005729675e-02</leafValues></_>
    <_>
      <internalNodes>
        0 -1 106669 4.9576432502362877e-05</internalNodes>
      <leafValues>
        6.3118152320384979e-02 -1.9685724377632141e-01</leafValues></_>
    <_>
      <internalNodes>
        0 -1 61036 -7.9896807670593262e-02</internalNodes>
      <leafValues>
        -5.9221047163009644e-01 2.1555952727794647e-02</leafValues></_>
    <_>
      <internalNodes>
        0 -1 127741 -2.5892313569784164e-02</internalNodes>
      <leafValues>
        -6.5452694892883301e-01 1.5359649434685707e-02</leafValues></_>
    <_>
      <internalNodes>
        0 -1 78305 1.8772629555314779e-03</internalNodes>
      <leafValues>
        -7.1873538196086884e-02 1.6457553207874298e-01</leafValues></_>
    <_>
      <internalNodes>
        0 -1 68455 -4.1495366021990776e-03</internalNodes>
      <leafValues>
        1.5129317343235016e-01 -8.1011578440666199e-02</leafValues></_>
    <_>
      <internalNodes>
        0 -1 49317 -1.3386295177042484e-03</internalNodes>
      <leafValues>
        1.4745269715785980e-01 -8.0995127558708191e-02</leafValues></_>
    <_>
      <internalNodes>
        0 -1 87009 1.6461977362632751e-01</internalNodes>
      <leafValues>
        -4.8437904566526413e-02 3.5679948329925537e-01</leafValues></_>
    <_>
      <internalNodes>
        0 -1 127712 -1.0573206469416618e-02</internalNodes>
      <leafValues>
        1.8310628831386566e-01 -5.7855285704135895e-02</leafValues></_>
    <_>
      <internalNodes>
        0 -1 133673 2.7201150078326464e-04</internalNodes>
      <leafValues>
        4.4305473566055298e-02 -2.8158777952194214e-01</leafValues></_>
    <_>
      <internalNodes>
        0 -1 162315 1.0733832605183125e-02</internalNodes>
      <leafValues>
        1.8400788307189941e-02 -5.6631129980087280e-01</leafValues></_>
    <_>
      <internalNodes>
        0 -1 139163 2.9520527459681034e-04</internalNodes>
      <leafValues>
        5.8218859136104584e-02 -1.7845134437084198e-01</leafValues></_>
    <_>
      <internalNodes>
        0 -1 106690 -1.6837341245263815e-03</internalNodes>
      <leafValues>
        2.1942001581192017e-01 -5.3950101137161255e-02</leafValues></_>
    <_>
      <internalNodes>
        0 -1 148219 -7.4949790723621845e-04</internalNodes>
      <leafValues>
        1.9962792098522186e-01 -5.5683191865682602e-02</leafValues></_>
    <_>
      <internalNodes>
        0 -1 157588 1.2149786016379949e-05</internalNodes>
      <leafValues>
        -1.1886895447969437e-01 1.0008557885885239e-01</leafValues></_>
    <_>
      <internalNodes>
        0 -1 159722 5.5379001423716545e-04</internalNodes>
      <leafValues>
        3.8324233144521713e-02 -2.9605537652969360e-01</leafValues></_>
    <_>
      <internalNodes>
        0 -1 52052 -1.2315497733652592e-03</internalNodes>
      <leafValues>
        1.6151261329650879e-01 -7.3571108281612396e-02</leafValues></_>
    <_>
      <internalNodes>
        0 -1 160525 -1.3760589994490147e-02</internalNodes>
      <leafValues>
        -4.5536753535270691e-01 2.3433091118931770e-02</leafValues></_>
    <_>
      <internalNodes>
        0 -1 76755 -1.1209766380488873e-02</internalNodes>
      <leafValues>
        1.1546806246042252e-01 -1.0534118860960007e-01</leafValues></_>
    <_>
      <internalNodes>
        0 -1 43611 -1.6782941296696663e-02</internalNodes>
      <leafValues>
        1.6471773386001587e-01 -8.3759576082229614e-02</leafValues></_>
    <_>
      <internalNodes>
        0 -1 111174 2.9717059805989265e-03</internalNodes>
      <leafValues>
        -7.4054978787899017e-02 1.5678253769874573e-01</leafValues></_>
    <_>
      <internalNodes>
        0 -1 26815 -5.4601412557531148e-05</internalNodes>
      <leafValues>
        1.0689110308885574e-01 -1.0322370380163193e-01</leafValues></_>
    <_>
      <internalNodes>
        0 -1 96586 -1.1250863317400217e-03</internalNodes>
      <leafValues>
        1.3873764872550964e-01 -7.8771039843559265e-02</leafValues></_>
    <_>
      <internalNodes>
        0 -1 128973 7.2035314515233040e-03</internalNodes>
      <leafValues>
        2.1586058661341667e-02 -5.1787298917770386e-01</leafValues></_>
    <_>
      <internalNodes>
        0 -1 160617 -4.0144048398360610e-04</internalNodes>
      <leafValues>
        1.4819155633449554e-01 -7.7887319028377533e-02</leafValues></_>
    <_>
      <internalNodes>
        0 -1 142158 1.7599822022020817e-03</internalNodes>
      <leafValues>
        3.1637262552976608e-02 -3.9003196358680725e-01</leafValues></_>
    <_>
      <internalNodes>
        0 -1 160622 1.2127964291721582e-03</internalNodes>
      <leafValues>
        -6.6583126783370972e-02 1.8297810852527618e-01</leafValues></_>
    <_>
      <internalNodes>
        0 -1 133315 -2.1372135728597641e-02</internalNodes>
      <leafValues>
        2.7032786607742310e-01 -4.1587736457586288e-02</leafValues></_>
    <_>
      <internalNodes>
        0 -1 157461 1.9052889547310770e-04</internalNodes>
      <leafValues>
        7.5173087418079376e-02 -1.6885639727115631e-01</leafValues></_>
    <_>
      <internalNodes>
        0 -1 157502 -1.7776305321604013e-04</internalNodes>
      <leafValues>
        1.9831424951553345e-01 -6.0412101447582245e-02</leafValues></_>
    <_>
      <internalNodes>
        0 -1 12798 3.3745104074478149e-01</internalNodes>
      <leafValues>
        1.1907166801393032e-02 -1.</leafValues></_>
    <_>
      <internalNodes>
        0 -1 66518 -9.4215050339698792e-03</internalNodes>
      <leafValues>
        2.0881544053554535e-01 -5.7940807193517685e-02</leafValues></_>
    <_>
      <internalNodes>
        0 -1 93675 -6.4207660034298897e-03</internalNodes>
      <leafValues>
        -5.2040243148803711e-01 2.2390047088265419e-02</leafValues></_>
    <_>
      <internalNodes>
        0 -1 15469 3.8435548543930054e-02</internalNodes>
      <leafValues>
        2.2742012515664101e-02 -4.7271510958671570e-01</leafValues></_>
    <_>
      <internalNodes>
        0 -1 121 2.2101938724517822e-02</internalNodes>
      <leafValues>
        -7.1004636585712433e-02 1.9404768943786621e-01</leafValues></_>
    <_>
      <internalNodes>
        0 -1 525 -7.9060450196266174e-02</internalNodes>
      <leafValues>
        1.7915691435337067e-01 -6.6600404679775238e-02</leafValues></_>
    <_>
      <internalNodes>
        0 -1 54245 -3.0120015144348145e-01</internalNodes>
      <leafValues>
        -4.1089054942131042e-01 2.9069298878312111e-02</leafValues></_>
    <_>
      <internalNodes>
        0 -1 98594 2.7965771732851863e-04</internalNodes>
      <leafValues>
        3.2873492687940598e-02 -3.4119075536727905e-01</leafValues></_>
    <_>
      <internalNodes>
        0 -1 11547 -6.6411010921001434e-03</internalNodes>
      <leafValues>
        1.8992537260055542e-01 -6.7438758909702301e-02</leafValues></_>
    <_>
      <internalNodes>
        0 -1 227 -1.5756320953369141e-01</internalNodes>
      <leafValues>
        -7.5001746416091919e-01 1.5364988707005978e-02</leafValues></_>
    <_>
      <internalNodes>
        0 -1 2113 1.2570410966873169e-01</internalNodes>
      <leafValues>
        1.8680622801184654e-02 -5.4180049896240234e-01</leafValues></_>
    <_>
      <internalNodes>
        0 -1 2204 -3.5313726402819157e-03</internalNodes>
      <leafValues>
        -3.8256543874740601e-01 2.6980211958289146e-02</leafValues></_>
    <_>
      <internalNodes>
        0 -1 3117 -1.3445632159709930e-01</internalNodes>
      <leafValues>
        -7.1489948034286499e-01 1.3501237146556377e-02</leafValues></_>
    <_>
      <internalNodes>
        0 -1 39867 2.3616705089807510e-02</internalNodes>
      <leafValues>
        1.5024561434984207e-02 -6.1666566133499146e-01</leafValues></_>
    <_>
      <internalNodes>
        0 -1 10150 3.1185496598482132e-02</internalNodes>
      <leafValues>
        -3.8603797554969788e-02 3.2058411836624146e-01</leafValues></_>
    <_>
      <internalNodes>
        0 -1 71676 -3.5438373684883118e-02</internalNodes>
      <leafValues>
        -8.8678079843521118e-01 1.3985089026391506e-02</leafValues></_>
    <_>
      <internalNodes>
        0 -1 80331 -6.9098058156669140e-04</internalNodes>
      <leafValues>
        -2.5260093808174133e-01 3.8840029388666153e-02</leafValues></_>
    <_>
      <internalNodes>
        0 -1 147546 9.7049444913864136e-02</internalNodes>
      <leafValues>
        1.0646850802004337e-02 -8.6907708644866943e-01</leafValues></_>
    <_>
      <internalNodes>
        0 -1 143959 -8.6571460997220129e-05</internalNodes>
      <leafValues>
        -2.4400378763675690e-01 4.1099239140748978e-02</leafValues></_>
    <_>
      <internalNodes>
        0 -1 35757 -8.8070280849933624e-02</internalNodes>
      <leafValues>
        -7.7039670944213867e-01 1.3007462956011295e-02</leafValues></_>
    <_>
      <internalNodes>
        0 -1 47784 -6.8429131060838699e-03</internalNodes>
      <leafValues>
        1.5515804290771484e-01 -7.5297795236110687e-02</leafValues></_>
    <_>
      <internalNodes>
        0 -1 88520 1.0823523625731468e-02</internalNodes>
      <leafValues>
        -6.4251191914081573e-02 1.8460419774055481e-01</leafValues></_>
    <_>
      <internalNodes>
        0 -1 59996 -3.1302566640079021e-03</internalNodes>
      <leafValues>
        1.9562757015228271e-01 -5.8131936937570572e-02</leafValues></_>
    <_>
      <internalNodes>
        0 -1 42577 6.4215674996376038e-02</internalNodes>
      <leafValues>
        -1.5610469505190849e-02 7.2647309303283691e-01</leafValues></_>
    <_>
      <internalNodes>
        0 -1 125752 1.0569449514150620e-03</internalNodes>
      <leafValues>
        3.0497739091515541e-02 -4.0557327866554260e-01</leafValues></_>
    <_>
      <internalNodes>
        0 -1 154793 -3.9154579862952232e-03</internalNodes>
      <leafValues>
        2.8118970990180969e-01 -4.3439753353595734e-02</leafValues></_>
    <_>
      <internalNodes>
        0 -1 149397 6.3925585709512234e-04</internalNodes>
      <leafValues>
        -4.7910563647747040e-02 2.2340896725654602e-01</leafValues></_>
    <_>
      <internalNodes>
        0 -1 145338 -7.8422727528959513e-04</internalNodes>
      <leafValues>
        2.0848840475082397e-01 -6.2305346131324768e-02</leafValues></_>
    <_>
      <internalNodes>
        0 -1 133724 1.2635621533263475e-04</internalNodes>
      <leafValues>
        6.8041719496250153e-02 -1.6261380910873413e-01</leafValues></_>
    <_>
      <internalNodes>
        0 -1 148235 5.9836158470716327e-05</internalNodes>
      <leafValues>
        -9.8919093608856201e-02 1.2097682803869247e-01</leafValues></_>
    <_>
      <internalNodes>
        0 -1 139190 2.9666166752576828e-02</internalNodes>
      <leafValues>
        1.2876328080892563e-02 -8.3026480674743652e-01</leafValues></_>
    <_>
      <internalNodes>
        0 -1 132218 3.4493952989578247e-02</internalNodes>
      <leafValues>
        2.5764040648937225e-02 -3.8806235790252686e-01</leafValues></_>
    <_>
      <internalNodes>
        0 -1 105204 1.6539397183805704e-03</internalNodes>
      <leafValues>
        9.1429874300956726e-02 -1.4380155503749847e-01</leafValues></_>
    <_>
      <internalNodes>
        0 -1 92481 -1.1311626061797142e-02</internalNodes>
      <leafValues>
        2.1308812499046326e-01 -5.2923806011676788e-02</leafValues></_></weakClassifiers></stage18>
</opencv_storage>
